{"in_shape": [null, 66], "layers": [{"type": "dense", "activation": "elu", "shape": [null, 128], "weights": [[[0.10051905363798141, 0.047939810901880264, 0.03554100543260574, 0.31482183933258057, 0.18690134584903717, -0.18336543440818787, -0.10715730488300323, -0.10403381288051605, 0.130095973610878, 0.02294068969786167, -0.07529569417238235, -0.05828164517879486, -0.012890778481960297, -0.06692264974117279, 0.2239532768726349, -0.1484774798154831, -0.07589183002710342, 0.10284795612096786, 0.23147401213645935, -0.21493388712406158, 0.08100201189517975, -0.1078387126326561, -0.3090621531009674, -0.16200190782546997, -0.02693931944668293, 0.20891648530960083, 0.08695812523365021, -0.033798325806856155, 0.02243281528353691, 0.08232621848583221, 0.14365939795970917, 0.09142787754535675, -0.061170544475317, 0.11560847610235214, -0.1414652168750763, -0.1820491999387741, -0.2378564178943634, 0.2531609535217285, -0.0768025740981102, 0.12009796500205994, -0.09205419570207596, 0.11478754878044128, 0.06623902171850204, 0.19256772100925446, 0.21898400783538818, -0.12289057672023773, 0.020409362390637398, -0.09628482162952423, 0.29377755522727966, 0.22122487425804138, 0.07016661018133163, 0.026675788685679436, -0.09172145277261734, 0.09528015553951263, 0.1511239856481552, -0.15366634726524353, -0.035555578768253326, -0.14450837671756744, 0.21552123129367828, 0.007800055202096701, -0.08194402605295181, -0.278170108795166, 0.08999790251255035, -0.09589482098817825, 0.0560179203748703, 0.08192663639783859, -0.20210154354572296, -0.24523086845874786, 0.012672599405050278, -0.05563272535800934, 0.02299295924603939, -0.1625780463218689, -0.004153975751250982, 0.05781780183315277, -0.12097242474555969, -0.17648477852344513, 0.24410614371299744, -0.05522505193948746, 0.0017714403802528977, -0.05383240804076195, -0.1372346431016922, -0.13958799839019775, -0.02414637804031372, 0.20999675989151, 0.04016381874680519, -0.05810552462935448, -0.1850288361310959, -0.03636488690972328, 0.10895540565252304, 0.0073662810027599335, -0.04312312975525856, 0.13127443194389343, 0.0893159732222557, -0.3340664207935333, -0.06651508063077927, -0.15522602200508118, -0.18475204706192017, 0.07679226249456406, 0.009809187613427639, -0.08591896295547485, 0.09887507557868958, -0.30183324217796326, 0.07270395755767822, 0.24970491230487823, 0.02770380675792694, 0.0643484890460968, -0.03136336803436279, 0.09553920477628708, 0.09576526284217834, 0.015541422180831432, 0.020991142839193344, 0.1639743447303772, 0.05455227568745613, -0.09778892993927002, -0.13775686919689178, 0.03501812368631363, 0.05186857655644417, -0.0832882970571518, -0.21600955724716187, 0.07021114975214005, 0.03447286784648895, 0.05870378017425537, 0.18875230848789215, -0.16372986137866974, -0.12081137299537659, -0.10265456140041351, 0.030408889055252075, -0.09403169900178909], [-0.06840401142835617, -0.19590336084365845, -0.11803331971168518, -0.28456753492355347, -0.19611263275146484, 0.1506367027759552, -0.061881933361291885, -0.1619207113981247, 0.1816697120666504, 0.0998169407248497, -0.04289351403713226, 0.07627934217453003, -0.17535637319087982, 0.027433307841420174, 0.1715424507856369, -0.13943743705749512, -0.21094708144664764, -0.12766262888908386, 0.19521267712116241, -0.06860089302062988, -0.13423262536525726, 0.18177279829978943, 0.17552581429481506, 0.16329441964626312, -0.14095674455165863, 0.0734788253903389, -0.13335055112838745, -0.13720464706420898, 0.14259161055088043, 0.033003732562065125, 0.11216340959072113, 0.2966902256011963, -0.017993533983826637, 0.13920120894908905, 0.015057540498673916, 0.03073878027498722, 0.26814430952072144, -0.0480404756963253, 0.1335754245519638, 0.10367365181446075, 0.11481501907110214, -0.21421942114830017, -0.020371228456497192, 0.07539431750774384, -0.11602088809013367, -0.1791132390499115, 0.24038253724575043, 0.0710701197385788, -0.15009614825248718, -0.03579755499958992, -0.05416172370314598, -0.20574457943439484, 0.019574662670493126, 0.1635788530111313, 0.10954716801643372, -0.21306030452251434, -0.08725589513778687, -0.10117468237876892, 0.0570455864071846, -0.11507964879274368, -0.0071126664988696575, 0.22229355573654175, -0.05478952080011368, -0.12393879890441895, -0.1007818877696991, 0.24060846865177155, 0.04120749607682228, -0.010749048553407192, -0.09483834356069565, -0.005686942022293806, -0.08004004508256912, -0.22564637660980225, 0.06974634528160095, -0.0792098268866539, 0.12394712120294571, 0.010810591280460358, -0.05778880789875984, 0.24572314321994781, -0.2228984236717224, -0.01577005162835121, -0.3146495223045349, 0.08271827548742294, -0.13538601994514465, 0.0847807228565216, -0.03132469579577446, -0.05391940101981163, -0.12023692578077316, 0.2087458074092865, 0.011287950910627842, 0.12362046539783478, -0.1235332116484642, -0.26798751950263977, -0.020915230736136436, -0.08435790985822678, -0.0512532964348793, -0.13259035348892212, 0.14330273866653442, -0.09830951690673828, 0.13269588351249695, 0.04648323357105255, -0.21313853561878204, -0.13241831958293915, -0.18176773190498352, 0.1542094647884369, -0.2629491686820984, -0.09810285270214081, -0.1889917254447937, 0.05199084058403969, 0.008463798090815544, 0.15289975702762604, 0.05415451526641846, 0.27486103773117065, 0.0044318558648228645, -0.10489235073328018, 0.34289637207984924, -0.05152507126331329, 0.1415419578552246, 0.0544092021882534, -0.04514274001121521, -0.06750776618719101, -0.11242352426052094, -0.11094825714826584, 9.831401257542893e-05, 0.02615746669471264, 0.07005090266466141, -0.015294899232685566, -0.10481622070074081, -0.03899132460355759], [-0.05403854697942734, -0.2606808841228485, 0.32089129090309143, 0.14764657616615295, -0.032280780375003815, 0.12010692059993744, -0.0976017564535141, 0.05080819129943848, 0.13424880802631378, -0.24246877431869507, 0.08699226379394531, -0.3777739107608795, 0.15285137295722961, -0.26256200671195984, 0.08515171706676483, 0.1430669128894806, -0.2997005879878998, -0.2124823033809662, 0.3116038143634796, 0.3830682337284088, -0.16881713271141052, 0.19764111936092377, 0.24855241179466248, -0.009116348810493946, 0.2517911195755005, -0.04576745256781578, 0.11015179008245468, -0.21624895930290222, -0.021951742470264435, 0.14711686968803406, -0.11768155544996262, -0.24766358733177185, 0.12416297197341919, 0.05400874465703964, -0.16333557665348053, -0.20182721316814423, -0.1244107261300087, -0.17545056343078613, 0.2576584219932556, -0.018872994929552078, -0.3832148015499115, -0.3228871524333954, 0.045529358088970184, -0.17731162905693054, 0.07309650629758835, -0.2742668688297272, -0.4022102952003479, 0.24809132516384125, -0.20043277740478516, 0.018112139776349068, -0.11319918930530548, 0.2144462615251541, 0.25519099831581116, 0.5283222198486328, -0.18626277148723602, -0.11246906220912933, 0.04420218989253044, -0.029068823903799057, 0.07984752207994461, -0.10188263654708862, 0.12590305507183075, 0.1980905681848526, -0.020340317860245705, 0.06701602786779404, -0.2701316773891449, 0.046506062150001526, -0.1982535570859909, -0.37801364064216614, -0.0864567682147026, 0.2144620567560196, -0.0031693358905613422, 0.31674689054489136, -0.40439197421073914, -0.22267839312553406, 0.12506964802742004, -0.46762582659721375, -0.11602527648210526, -0.0985654890537262, 0.3709734082221985, -0.21551772952079773, -0.1515485793352127, -0.1048550084233284, -0.10358695685863495, -0.09098890423774719, -0.3937663435935974, -0.0910787582397461, 0.026733748614788055, 0.014655101113021374, 0.0251484252512455, -0.04303758218884468, 0.17418941855430603, -0.13558147847652435, 0.060409724712371826, 0.1078357920050621, -0.1396508663892746, 0.12500664591789246, 0.20937950909137726, 0.02722392976284027, 0.08365937322378159, 0.02084127441048622, 0.08267668634653091, 0.10954806208610535, -0.18667376041412354, 0.10070726275444031, 0.09970120340585709, 0.2573760151863098, 0.39604729413986206, 0.07426349073648453, 0.09717711061239243, -0.17871759831905365, 0.22378048300743103, -0.05186305567622185, 0.06133526563644409, -0.15284515917301178, -0.3157913088798523, -0.3933243155479431, -0.16980169713497162, 0.2784740626811981, 0.01115480251610279, -0.14663150906562805, 0.16778866946697235, 0.16186197102069855, -0.2043682485818863, 0.13604669272899628, 0.22713428735733032, -0.08155553787946701, -0.2422403246164322, 0.1332060992717743], [0.5865992903709412, 0.3355613052845001, 0.1648704558610916, 0.12114937603473663, -1.1280659437179565, -0.3370218276977539, -0.4411587417125702, -1.6756528615951538, 0.9396073222160339, 1.4966071844100952, -1.305376410484314, 0.03960374742746353, 0.4697284996509552, 0.3850373327732086, 1.2902820110321045, 0.8768235445022583, 0.9035640954971313, 1.8658692836761475, -0.24872298538684845, -0.3279587924480438, -1.4129631519317627, 0.6180194020271301, 2.131683349609375, -1.4103854894638062, -2.025705337524414, 1.5871498584747314, -1.2998934984207153, 1.108283519744873, 1.8062368631362915, -0.2215886265039444, 1.3207958936691284, -0.7876790761947632, -1.0912781953811646, 0.16904480755329132, -1.0674805641174316, 2.811352252960205, 0.9060078263282776, -0.7690247297286987, 1.1075050830841064, 0.8703011870384216, -0.33493953943252563, -0.33540815114974976, 0.5433446764945984, -0.08304964005947113, -0.23383498191833496, 0.24438048899173737, 1.088972806930542, -0.5839972496032715, -1.0832982063293457, -0.04292343929409981, -2.037274122238159, -0.95516437292099, 1.6966699361801147, -0.39683112502098083, 1.2272934913635254, -1.2030553817749023, -0.3641990125179291, -0.5929850935935974, -1.3904298543930054, -1.921494483947754, -0.904338002204895, 1.3117072582244873, -1.1361637115478516, 1.1048060655593872, 1.233801245689392, 2.300940752029419, 0.7043489217758179, 1.0381979942321777, -0.12374331057071686, 0.04216434061527252, 0.11887352913618088, 0.5694364905357361, -0.36498135328292847, -0.44830960035324097, 0.9327632188796997, 0.9499996900558472, -0.28528377413749695, -0.20742906630039215, 0.2004604935646057, 1.020401120185852, -1.149110198020935, -0.7354468703269958, 0.4132760465145111, -0.518415629863739, -1.1235932111740112, -0.9960861206054688, -0.38791224360466003, -0.9637268781661987, 1.2285048961639404, 0.8085756897926331, 0.9758797287940979, -1.0949609279632568, -0.7501165270805359, -0.9950702786445618, -0.48379138112068176, 0.19719871878623962, -0.010994735173881054, -0.8661189675331116, 2.0520803928375244, -2.8392879962921143, 0.8360481262207031, -0.9607786536216736, 1.2250010967254639, 2.405457019805908, -0.3155696988105774, -0.2581998407840729, -1.2451618909835815, 0.13960544764995575, -0.028041791170835495, -0.8921067714691162, 0.29664933681488037, -0.22783440351486206, 1.4487230777740479, -2.513397216796875, -0.6940963864326477, -0.07391109317541122, -0.8548455238342285, 0.660028338432312, 1.3491448163986206, 0.1847941130399704, 1.0516185760498047, 0.5955994725227356, 0.17003823816776276, 1.0935406684875488, 0.5763238668441772, -0.6462915539741516, 0.9153422713279724, 1.1247121095657349], [-1.7291314601898193, 0.020412147045135498, -1.7467639446258545, 0.06127358600497246, -2.762073040008545, 0.553814709186554, -0.5773765444755554, -1.0151176452636719, -0.40422725677490234, 0.5601978898048401, 1.1498101949691772, -0.7771155834197998, 0.1792164444923401, -1.1862995624542236, 0.5627269744873047, -0.9226840138435364, 2.3315343856811523, 2.0594873428344727, -2.0723140239715576, 1.2273391485214233, -0.354135125875473, -2.0380632877349854, 2.539905071258545, -1.6689963340759277, 1.1657706499099731, -1.4518885612487793, 0.5014033317565918, 1.6913572549819946, -0.8832186460494995, 0.3565156161785126, 0.9370112419128418, 1.5622198581695557, -1.113882303237915, -0.13586321473121643, 1.6495636701583862, -0.06351646035909653, 0.7553533315658569, -2.5700533390045166, -1.7357152700424194, 1.6719313859939575, -0.5386238098144531, -2.0499024391174316, 2.035454511642456, 0.7706356048583984, -0.6727585792541504, 0.23949453234672546, 0.899716317653656, -1.3026630878448486, -0.7563314437866211, 1.3908820152282715, -0.6721646785736084, -1.3229093551635742, 0.20589810609817505, -0.3813699185848236, 0.6608001589775085, -0.07303357124328613, -2.229992628097534, 0.8182849287986755, 0.5624282956123352, -0.12122929841279984, 0.15382598340511322, 0.3658977746963501, 0.7833986282348633, -0.02030184119939804, 0.31757691502571106, -2.0535569190979004, 1.1652556657791138, -0.3924497663974762, -0.394741952419281, -0.9922305941581726, 0.6505204439163208, -0.6742531061172485, 0.3964684307575226, -2.1927831172943115, 1.3153173923492432, -1.2333903312683105, -1.3583283424377441, -0.7344411611557007, 0.35239413380622864, 0.059550799429416656, 0.7157437205314636, 1.4856232404708862, -0.5993195176124573, 0.7600398063659668, -0.6321529150009155, 1.0521374940872192, -1.6274536848068237, -1.0913020372390747, -0.459933876991272, 0.01627834141254425, 0.1790010631084442, 0.3678620159626007, 1.3271620273590088, -0.036141205579042435, -0.42880117893218994, -1.7231621742248535, 2.3922793865203857, 1.1605567932128906, -0.7557926177978516, -0.2080625593662262, 1.4608511924743652, 1.2246472835540771, -0.45737090706825256, -1.9702967405319214, -0.021791744977235794, -0.6861779689788818, -1.436745285987854, 0.31019699573516846, 1.0113747119903564, -0.2296498417854309, 0.8322349190711975, -0.13994769752025604, -1.2194647789001465, -0.4475157856941223, 0.286325067281723, 1.0568904876708984, 1.177019715309143, -0.3071746528148651, -0.46408867835998535, 0.7565433382987976, -0.4341100752353668, 0.7122688889503479, -0.6053467392921448, -0.22883306443691254, 0.09651979058980942, 0.47219085693359375, -1.6008193492889404, 1.0116603374481201], [0.5073930025100708, 9.754115104675293, -1.7629112005233765, 3.7720932960510254, 12.914680480957031, -13.01072883605957, 11.69466495513916, 6.050510883331299, -5.268198490142822, 3.270047187805176, -2.81644344329834, -2.574690818786621, -9.202615737915039, -2.3520710468292236, -0.869914174079895, 6.301694869995117, 10.088567733764648, 2.4712283611297607, 10.550970077514648, -13.917044639587402, -3.8477976322174072, 11.899147987365723, 4.411888599395752, 3.1594483852386475, 8.532114028930664, 5.51547908782959, -4.4671173095703125, -18.625741958618164, -9.190666198730469, -8.75800609588623, -1.3802542686462402, -4.0964155197143555, -3.268001079559326, 5.26068639755249, -0.5673306584358215, -6.794217109680176, -1.1079918146133423, 6.9729790687561035, 8.651773452758789, -1.9860931634902954, 11.495372772216797, -20.103103637695312, 2.0423238277435303, 7.791401386260986, 4.7075114250183105, 6.895392417907715, -3.031944990158081, 12.463971138000488, 7.3007330894470215, -23.593673706054688, -1.7792472839355469, -4.319482326507568, -6.680975437164307, -9.017807006835938, 3.7912957668304443, -5.348962783813477, -4.380428314208984, 10.297304153442383, 10.360359191894531, 7.8828125, 3.5225749015808105, -2.088871955871582, -6.729872703552246, -1.009385347366333, -11.849333763122559, 6.8660807609558105, -5.683290481567383, -10.948665618896484, -0.09804506599903107, -10.799710273742676, -13.114405632019043, -1.6320570707321167, 6.9703192710876465, 0.08533380180597305, -4.784739017486572, 4.668260097503662, 2.8848955631256104, -7.981405735015869, 3.830921173095703, 3.090527296066284, -5.680584907531738, 15.290810585021973, 0.8702185153961182, -3.746619462966919, -7.838301181793213, 1.0426315069198608, 13.051542282104492, -11.456625938415527, -0.5600177645683289, 9.18112564086914, -13.821142196655273, 4.757805824279785, 6.581762313842773, -2.9618515968322754, -16.029895782470703, -13.425591468811035, 6.941659450531006, 1.7689876556396484, 3.6203925609588623, 3.8411691188812256, -5.398276329040527, 1.3802289962768555, 6.053985595703125, -7.344343185424805, 8.814156532287598, 7.786669731140137, -9.062505722045898, 3.9705142974853516, 7.017955303192139, 0.4230230450630188, 1.9049321413040161, 2.022569179534912, -6.734298229217529, -6.4076457023620605, 3.8012447357177734, 9.321969985961914, -1.1224467754364014, 4.928999900817871, -3.2380549907684326, 6.106427192687988, 4.454613208770752, 7.350410461425781, -20.732240676879883, 10.305872917175293, 1.678045392036438, 3.7500014305114746, 8.866573333740234, 3.231740951538086], [-0.19203928112983704, 0.5095760822296143, 0.21910616755485535, -0.1223071813583374, 0.17936265468597412, 0.5087424516677856, 0.5394943952560425, 0.11848482489585876, 0.4916777014732361, 0.4071432650089264, -0.34625881910324097, 0.09164106100797653, -0.19481123983860016, 0.25229695439338684, -0.620210587978363, 0.3332382142543793, 0.08675986528396606, -0.10193348675966263, -0.26877254247665405, -0.5262667536735535, 0.013288048096001148, -0.4333468973636627, -0.33800163865089417, 0.22843988239765167, 0.112822525203228, 0.16943885385990143, 0.36934345960617065, -0.3178342282772064, 0.0850994735956192, -0.35784223675727844, 0.03281688690185547, -0.2597001791000366, 0.47844401001930237, -0.27511247992515564, 0.053526315838098526, -0.5320720672607422, -0.5004271268844604, 0.32409223914146423, -0.06187308207154274, 0.4221905469894409, -0.938208818435669, 0.22249847650527954, -0.2558946907520294, 0.03802449256181717, -0.2739490270614624, 0.008819028735160828, -0.5256489515304565, 0.35488325357437134, -0.4440273344516754, 0.5209395289421082, -0.026499154046177864, 0.6206809282302856, -0.01578594744205475, -0.06893189996480942, 0.545397937297821, -0.7965394854545593, 0.08488398045301437, 0.4571859538555145, -0.23404482007026672, -0.3688301146030426, 0.06354427337646484, -0.6319634914398193, -0.1554463505744934, -0.06369946897029877, 0.6900473833084106, 0.6574046015739441, 0.3823072016239166, 0.2012908160686493, 0.6210209131240845, -0.4176928997039795, -0.02736314758658409, -0.21365368366241455, 0.3531404733657837, 0.042524904012680054, 0.4918758273124695, 0.25557076930999756, -0.8521518707275391, 0.3050687611103058, 0.4583795368671417, -0.6189804077148438, -0.24184143543243408, 0.390801340341568, -0.5383042097091675, -0.04776298627257347, -0.5422836542129517, 0.6351486444473267, -0.17053261399269104, -0.8417636752128601, -0.5693749189376831, -0.221995547413826, 0.0363541878759861, 0.25589674711227417, -0.30023202300071716, 0.4127574861049652, 0.34590598940849304, 0.46266910433769226, -0.19106051325798035, -0.03415098786354065, -0.04163127765059471, -0.3425634801387787, -0.23106937110424042, -0.2815690338611603, 0.01437222957611084, 0.44353023171424866, 0.12410266697406769, -0.11360214650630951, -0.14215585589408875, 0.1763237863779068, 0.16281577944755554, 0.453897625207901, 0.2081177830696106, 0.03288613632321358, 0.2583523988723755, -0.16861967742443085, 0.09165643900632858, 0.12362673878669739, -0.007490352727472782, -0.09257037192583084, 0.3883284032344818, -0.18468604981899261, 0.4570026099681854, -0.5082008242607117, 0.058006513863801956, 0.5134240984916687, 0.3688056170940399, 0.34089118242263794, 0.5634240508079529, -0.5119056105613708], [0.2955489456653595, 0.5140863656997681, -0.5961809158325195, -0.7715681195259094, 0.6972238421440125, 0.5142049789428711, -0.651305615901947, -0.3877449631690979, -0.5065311789512634, 0.18539319932460785, 0.18097825348377228, 0.20841990411281586, -0.2775039076805115, 0.5514788627624512, 0.6582297682762146, 0.022367611527442932, 0.012339713983237743, -0.24470758438110352, 0.42475035786628723, 0.5827746987342834, -0.07409683614969254, 0.0747845321893692, -0.5828697085380554, 0.48424002528190613, 0.5389781594276428, 0.6393574476242065, -0.5175834894180298, 0.7222007513046265, 0.32730942964553833, 0.2757665514945984, 0.3831147849559784, -0.7970740795135498, -0.39153343439102173, 0.6549195051193237, 0.23340342938899994, 0.20380474627017975, 0.2652677893638611, -0.5082669258117676, 0.5147106647491455, -0.23243312537670135, 0.22126534581184387, -0.13566268980503082, 0.03619329258799553, -0.0888417437672615, -0.6543408632278442, 0.014116575941443443, -0.24304765462875366, -0.2640458345413208, -0.2783919870853424, -0.7903291583061218, -0.6690236926078796, -0.1778281182050705, -0.12486185878515244, 0.656317412853241, -0.6420477628707886, 0.06708842515945435, -0.18285955488681793, 0.2854636311531067, -0.010044768452644348, 0.1061822697520256, 0.29715147614479065, -0.32861030101776123, 0.362541139125824, 0.4799960255622864, 0.3982970118522644, -0.698046088218689, -0.7200750112533569, 0.09450026601552963, 0.3036416172981262, 1.0518778562545776, -0.7568078637123108, 0.11760246008634567, 0.5726389288902283, -0.9104593396186829, -0.71000736951828, 0.807341456413269, 0.32996511459350586, 1.135308861732483, 1.350145936012268, -0.05901067703962326, 0.007036095019429922, -0.7628055810928345, 0.6768784523010254, -0.41786253452301025, -0.8108802437782288, -0.7105723023414612, 0.008962597697973251, 0.37288182973861694, 0.19743667542934418, -0.12763163447380066, -0.43878766894340515, -0.6854228377342224, 0.5460766553878784, 0.7284684181213379, 0.137638658285141, 0.4820409417152405, -0.39720430970191956, -0.18311619758605957, 0.2067781388759613, -0.029491592198610306, -0.04218073934316635, -0.020393330603837967, -0.1741010695695877, 0.24726255238056183, 0.20057126879692078, -0.06697672605514526, -0.09501214325428009, -0.7260198593139648, -1.0256003141403198, 0.7787182927131653, -0.8724327087402344, 0.0739339292049408, 0.7981109023094177, 0.049169376492500305, -1.1849290132522583, 0.26454874873161316, 0.4108041524887085, -0.5817139744758606, -0.08206699043512344, 0.1364499181509018, 0.5805633664131165, -1.1275825500488281, 1.1412657499313354, 0.1954878866672516, -0.015203255228698254, 0.40812402963638306, 0.6800612211227417, -1.0480064153671265], [0.18745961785316467, 0.21760189533233643, -0.008132033981382847, -0.5832485556602478, -0.19648998975753784, 0.3740564286708832, 0.185589998960495, -0.09676072001457214, -0.13857536017894745, 0.1576012521982193, 0.05807334557175636, 0.1823423057794571, -0.2690223157405853, -0.3116745352745056, 0.26907438039779663, 0.42070531845092773, -0.16846419870853424, 0.514606773853302, 0.08076128363609314, -0.03644217178225517, -0.09402889013290405, -0.336253821849823, 0.11209538578987122, -0.0863313376903534, 0.07048987597227097, 0.11597207933664322, 0.11954662203788757, -0.3186134397983551, 0.278224378824234, 0.024252999573946, -0.04118097200989723, -0.10419861972332001, -0.46051785349845886, -0.12213880568742752, 0.13374841213226318, -0.035895418375730515, -0.22367483377456665, 0.2663162052631378, -0.5054770112037659, -0.2982557713985443, -0.020803039893507957, -0.0996318906545639, -0.18041829764842987, 0.15122318267822266, 0.27649009227752686, -0.3266597390174866, 0.42392802238464355, -0.16568081080913544, 0.39249205589294434, 0.40327030420303345, -0.12387373298406601, 0.31492772698402405, -0.04265522211790085, -0.33056640625, -0.013888332061469555, -0.1469586044549942, -0.07552923262119293, -0.16206729412078857, 0.22107213735580444, -0.27081915736198425, -0.3402513563632965, -0.27326542139053345, 0.0528784804046154, -0.2560700476169586, -0.09077396243810654, -0.3697010576725006, 0.21377630531787872, 0.03390923887491226, -0.03149598464369774, -0.3623267114162445, 0.656628429889679, -0.0941147729754448, 0.1258963644504547, 0.012676231563091278, 0.3359427750110626, 0.6062644124031067, -0.0831521600484848, 0.03816252201795578, -0.44178226590156555, 0.07996147125959396, -0.09312713891267776, 0.28657427430152893, 0.2510482668876648, -0.04519973322749138, 0.4816107153892517, 0.31226518750190735, 0.3454568088054657, 0.285488098859787, 0.11223891377449036, -0.11525179445743561, 0.10369446128606796, 0.1915951520204544, -0.020571956411004066, 0.29995980858802795, 0.3574431538581848, -0.21161404252052307, -0.20899009704589844, -0.3847004175186157, -0.2988402247428894, 0.09576825797557831, 0.3052661418914795, 0.1326713114976883, 0.46392664313316345, -0.08011851459741592, 0.19160130620002747, -0.08224911987781525, -0.6083354949951172, -0.3666877746582031, -0.20652034878730774, 0.013430992141366005, 0.19750778377056122, 0.013741930946707726, -0.49137043952941895, 0.05145794525742531, -0.014740677550435066, -0.21571142971515656, 0.3091401159763336, 0.5053912401199341, 0.16001582145690918, 0.004451656248420477, -0.5361371636390686, -0.31365692615509033, 0.3443160057067871, 0.026208894327282906, 0.27754294872283936, 0.5767145752906799, 0.3322671949863434, -0.06825030595064163], [0.2684198021888733, -1.121366262435913, 1.2887382507324219, 0.5738428831100464, 0.8250738978385925, 1.332268238067627, -0.8166933655738831, -0.0014473441988229752, -0.869540810585022, -0.6475202441215515, -0.21825042366981506, -0.6758482456207275, -1.1875832080841064, 0.09630943834781647, 0.4529580771923065, 1.2254365682601929, -0.21153509616851807, -0.5050147175788879, 0.9181116223335266, 0.3711671829223633, 0.20500220358371735, 0.35164976119995117, -1.1280549764633179, 0.6438429951667786, -0.2318258285522461, -1.288586139678955, -0.7760962247848511, -0.192050501704216, -0.8852640390396118, -1.313254475593567, -1.2186594009399414, -1.313969612121582, 0.23626169562339783, -0.4502265453338623, -0.3910231590270996, -1.041444182395935, 0.3522852957248688, 0.2861673831939697, -0.3125661611557007, 0.056877002120018005, -0.45602571964263916, 0.3481254279613495, 1.413527250289917, -0.4484136998653412, 0.728236198425293, -0.2765946686267853, 0.860854983329773, -0.02300179935991764, 0.0897521823644638, 0.9489648938179016, 0.49037081003189087, -0.6236870288848877, -0.3204279839992523, 0.31164324283599854, -0.3335828185081482, 0.277636855840683, -0.8581472039222717, 1.254528522491455, 0.9266462326049805, 0.8381169438362122, 0.8030087947845459, -0.04878981411457062, -0.1284988671541214, -0.6701546311378479, 0.4371316134929657, -0.06758349388837814, -1.0450364351272583, -1.2930407524108887, -0.03654002398252487, 1.0268754959106445, 0.6141016483306885, 1.3495721817016602, 0.7412999868392944, -0.3041652739048004, 0.8432696461677551, -0.2972676157951355, -0.6582457423210144, -0.8803905248641968, -0.3001836836338043, -0.17973314225673676, -0.055822134017944336, -0.5188501477241516, 1.1897854804992676, 0.5310526490211487, 0.5219972729682922, 0.5019016265869141, 0.18718679249286652, -1.1060259342193604, -1.227042555809021, -0.45697176456451416, 0.7498980760574341, -0.6965039968490601, -1.1975575685501099, 0.02042372152209282, -0.8285045623779297, -0.6426701545715332, -0.37637850642204285, -1.4593243598937988, -1.2744234800338745, -0.7225282192230225, 0.3558083176612854, -0.8089159727096558, -0.2148488610982895, 1.2744635343551636, -0.29525628685951233, 0.9608508944511414, 0.3516210913658142, -0.7407049536705017, 0.9662930965423584, -0.6745288372039795, 0.7059299945831299, -0.41470396518707275, -0.7797293663024902, 0.47109538316726685, 1.0003151893615723, -0.47872990369796753, 0.35996025800704956, -1.3811051845550537, 0.0770636722445488, 0.5262124538421631, 1.510524868965149, -0.1044674888253212, 1.1684119701385498, -1.3260016441345215, -0.6651702523231506, 0.06820705533027649, -0.03887993097305298, -0.5439892411231995], [-0.38859835267066956, 0.4832642674446106, -1.9855411052703857, 0.8555835485458374, -0.8078646659851074, -0.3933534324169159, -1.7530369758605957, -0.07093138992786407, -0.9861411452293396, -0.04774663597345352, -1.1359232664108276, 0.8059425354003906, -0.656309962272644, -0.5222529768943787, 0.989106297492981, -0.23803789913654327, -0.597573459148407, 2.0738625526428223, -2.164801836013794, -0.37397685647010803, -0.47191178798675537, 1.3625688552856445, 1.3649377822875977, 1.6180614233016968, -1.7249733209609985, -2.6285512447357178, 1.1338084936141968, 0.4646111726760864, -1.8295177221298218, 1.1546540260314941, -0.5381964445114136, -0.9984253644943237, 2.1729252338409424, 0.777325451374054, 0.7647628784179688, 1.7187504768371582, 1.2064331769943237, -1.8994779586791992, -2.507366895675659, -0.6110864281654358, 0.43691644072532654, -1.6762875318527222, -1.1614826917648315, 0.4239269196987152, -1.44774329662323, 1.7809877395629883, -0.3208453953266144, 0.5030088424682617, -2.221437454223633, -0.19040662050247192, 0.0537063367664814, 1.0067464113235474, 2.6587936878204346, 0.42944279313087463, 0.4274126887321472, -1.5612914562225342, -0.9029145836830139, -0.21647557616233826, -0.28457432985305786, 2.150604486465454, 2.026005268096924, -0.03950177878141403, -0.7763685584068298, 1.395576000213623, -0.37771710753440857, 0.5066918730735779, 1.7716121673583984, 0.3864224851131439, 0.6713823676109314, -1.4774669408798218, -0.5391139984130859, 1.0688257217407227, 1.0998424291610718, 1.043432354927063, -1.2878912687301636, -0.7229947447776794, -0.4546423554420471, 0.6925243139266968, 1.5530304908752441, -1.6598173379898071, 0.7523636817932129, 0.028591547161340714, -1.6977088451385498, -1.0102578401565552, 2.5094592571258545, 1.0395251512527466, 0.7765543460845947, 0.8403900265693665, 0.243378147482872, 0.7613522410392761, 2.1229052543640137, 0.5736171007156372, 1.2683411836624146, -0.3781771659851074, 1.3161919116973877, -0.8336980938911438, -1.9013477563858032, -1.5801540613174438, -0.8302025198936462, -0.9533533453941345, -0.7238731980323792, -0.29877209663391113, 0.3277854323387146, -0.7369937300682068, -0.148796945810318, -1.4963635206222534, -1.231488823890686, 1.476341962814331, -0.09451162070035934, 1.9219274520874023, 0.24162715673446655, 0.3928869664669037, -1.9522382020950317, 1.5548295974731445, -1.5407015085220337, 0.7044863104820251, 1.6166300773620605, 0.22633422911167145, 1.3360066413879395, -0.3261277675628662, -1.5441533327102661, -0.09000206738710403, -0.44616761803627014, -0.6104565262794495, 1.1440255641937256, 1.9918241500854492, 0.3942548632621765, 0.9263688921928406], [1.1893420219421387, 0.09953638166189194, -0.6981419324874878, 0.7927497029304504, 0.47188952565193176, -1.3562029600143433, -0.22880198061466217, -0.8251826167106628, -0.5966624021530151, 1.2246782779693604, 2.137794256210327, 0.26037803292274475, 1.5273494720458984, -0.34742581844329834, -0.6511839032173157, -1.681615948677063, 0.6684005856513977, 1.2675511837005615, 1.2803772687911987, 0.5266761779785156, 0.846407413482666, -1.5857484340667725, 0.7921267747879028, 1.2965511083602905, 1.0515319108963013, -1.490243673324585, -1.8099523782730103, 2.1274778842926025, -0.8910567760467529, -1.586809515953064, -1.0248034000396729, 1.1365525722503662, 0.970382571220398, 0.2587422728538513, -0.5784488916397095, -0.7554143667221069, 0.3513249158859253, -1.2835328578948975, -0.05248846113681793, -1.2206512689590454, -1.1705822944641113, 0.7142972946166992, 0.3327086567878723, 0.1832137256860733, -0.23874066770076752, 0.8568874001502991, -0.7383965253829956, 0.12642084062099457, -0.8208451271057129, 1.112717866897583, 0.4958227276802063, -0.5240479111671448, 0.5235318541526794, -2.7017734050750732, 1.0522682666778564, -0.38550543785095215, -0.30763885378837585, 1.3555127382278442, -0.25878942012786865, -1.6195391416549683, -0.25811049342155457, 0.3432261347770691, 0.11671897023916245, 0.16245172917842865, -0.29158830642700195, -1.8292467594146729, -0.6442328095436096, -0.7048470377922058, 0.9473194479942322, -1.0159488916397095, 0.3670758306980133, 0.3160160481929779, -1.7978808879852295, -1.121988296508789, 0.2538496255874634, 0.8183338642120361, -1.2385410070419312, 1.2269353866577148, 0.4109053313732147, -0.6455150842666626, 1.3636107444763184, -0.41409751772880554, 0.539172351360321, 0.9162870049476624, -0.24726790189743042, 1.3380086421966553, 1.5704807043075562, -0.827534556388855, -0.25849997997283936, -0.7445693612098694, 0.07750959694385529, -0.5030416250228882, -0.9984391927719116, -1.0405665636062622, 0.943343460559845, 1.4222527742385864, 0.7966241836547852, -0.31160518527030945, -0.6691166162490845, 2.3220248222351074, 0.5802878737449646, -0.6949339509010315, 1.836490511894226, 0.15697261691093445, -0.6544807553291321, 0.44001060724258423, -0.1854746788740158, 0.9096225500106812, 0.5726580619812012, -0.03342681750655174, -0.8218494057655334, -1.2060463428497314, 1.0339891910552979, 1.4167219400405884, 0.10536601394414902, -0.9735521674156189, -0.8872695565223694, 1.168936848640442, 0.0043651871383190155, 0.11905818432569504, -0.7726345062255859, 1.4136791229248047, 0.5759754180908203, -0.991844654083252, 0.713686466217041, 0.47818514704704285, 0.7545089721679688, -0.40869569778442383], [-0.19544412195682526, -0.28713566064834595, -0.3564000129699707, 0.311790406703949, -1.5441478490829468, -0.8874346017837524, -0.767414927482605, 0.726220965385437, -0.894034743309021, -0.67939692735672, -0.8708969950675964, -0.959273099899292, 0.8892913460731506, -0.8097372651100159, 0.4882097840309143, 0.07016868144273758, -0.6014522314071655, 0.3771612346172333, 1.1341396570205688, -0.8086506724357605, -0.4993077516555786, 1.4119256734848022, -0.17604196071624756, 0.8242859244346619, 0.40406563878059387, 0.8317862749099731, 0.08832056075334549, 1.154728651046753, -0.32548925280570984, 0.9639883637428284, 0.19879047572612762, -0.44085827469825745, 1.3452553749084473, -0.9654864072799683, -0.8755381107330322, -1.0408453941345215, 0.9528434872627258, -0.1931406557559967, -0.4265861213207245, 0.5715985298156738, 1.3318496942520142, -0.1780022233724594, 0.6792703866958618, 0.11485113948583603, 0.9305843114852905, 0.9510235786437988, 0.3019029200077057, -0.21559110283851624, -0.9179251790046692, -0.8066943287849426, 0.5898271799087524, -0.30430373549461365, 1.0843669176101685, 0.3902111053466797, -0.6240018010139465, -0.6251491904258728, 0.28533634543418884, 0.7694055438041687, -0.9291471242904663, -0.7448038458824158, -0.6516137719154358, 0.11389686167240143, -0.5236974358558655, 0.2310679405927658, 0.5226786732673645, 0.38405779004096985, -0.5984537601470947, -0.6863710284233093, 0.022581957280635834, 0.8180549740791321, -0.6591474413871765, 1.6756991147994995, 0.8441893458366394, -0.5081056356430054, 0.7160701751708984, 0.05482752248644829, -0.9546627998352051, 0.5318319201469421, -0.02733590267598629, -0.9350183010101318, -0.6483615040779114, -0.8648275136947632, 0.0799986720085144, 0.8942682147026062, 0.4982111155986786, -0.9385156035423279, -0.42664793133735657, -0.45683225989341736, 0.7300967574119568, -0.6917464733123779, 0.6407089233398438, -0.39236465096473694, 0.7510380744934082, -0.8447635173797607, -0.20307350158691406, -0.7636071443557739, 0.9018056988716125, -1.132936716079712, 1.3397737741470337, 0.4919798672199249, 0.3679691553115845, 1.526427984237671, 0.3203875422477722, 0.7806448936462402, -0.6053181290626526, -0.29179537296295166, 0.8904431462287903, -0.8502159714698792, 0.44871318340301514, -0.9561581611633301, 0.13365112245082855, 1.5925244092941284, 0.6403886079788208, -0.3939351737499237, -1.1034070253372192, 1.2079970836639404, 0.055541105568408966, -0.2340627908706665, -0.35051804780960083, -0.7856979370117188, 0.3459540605545044, -1.0765877962112427, -0.8043146133422852, -0.9058494567871094, -0.7549837827682495, -0.6250530481338501, 0.5408530831336975, 0.7920805215835571], [1.6900242567062378, -1.2407710552215576, -0.7561923265457153, -1.8334012031555176, 0.16451947391033173, 2.0288498401641846, -0.8079419136047363, -0.6572520136833191, 1.0534268617630005, -0.9541375637054443, -0.32759544253349304, 0.1140831932425499, 0.9413200616836548, 1.4400588274002075, -1.3587236404418945, 0.6623337864875793, 0.6895397305488586, 1.0422735214233398, 0.6007492542266846, 0.8928899765014648, -0.35043665766716003, -1.251345157623291, -0.4271966218948364, 1.4482755661010742, -0.9215658903121948, 0.039146121591329575, 0.7771890759468079, -0.9796819686889648, 0.44278863072395325, -0.9731068015098572, -0.9361022710800171, 0.5641226172447205, -1.141645073890686, 0.18295830488204956, 2.203693389892578, -1.052491307258606, -1.2516201734542847, 0.6554141640663147, 1.3994041681289673, 0.20977845788002014, -0.9504681825637817, 0.176161527633667, 0.7275094389915466, -0.497249573469162, 0.4509897530078888, -0.308901309967041, 0.2601342499256134, 0.0033550341613590717, -0.027150312438607216, 0.056359145790338516, -1.199882984161377, -0.25560665130615234, 0.4109645485877991, -0.9511647820472717, 1.5700706243515015, 1.915086030960083, -0.2593958377838135, -0.6329121589660645, 1.0569082498550415, -0.2558019459247589, -0.4169846475124359, -0.8822703957557678, 0.33537524938583374, 1.0773944854736328, -1.7440580129623413, -0.9212684631347656, -0.01643211767077446, 1.030928373336792, -1.0129284858703613, -0.6828256845474243, -0.12589208781719208, -0.9932446479797363, 0.9565105438232422, 0.8795974850654602, 0.31206414103507996, -1.6921765804290771, -0.6280616521835327, 0.9536432027816772, -0.8816978335380554, 1.3676108121871948, 1.6069444417953491, -0.7470294237136841, 0.15877574682235718, -1.3037073612213135, 1.0394207239151, 0.3535265624523163, 0.3622899651527405, -1.114917278289795, 0.3521691560745239, 1.414933681488037, -1.448535680770874, 0.5485863089561462, -0.6984573006629944, -1.0099512338638306, 0.8939891457557678, -1.1005487442016602, 2.390763282775879, 0.5143094062805176, -0.1449211686849594, -0.4495154619216919, 0.8432204127311707, 0.899530827999115, -0.922319233417511, -1.6316537857055664, -1.0059455633163452, 0.8958396315574646, -0.4842376708984375, -0.8628116846084595, 1.0796020030975342, 0.7044065594673157, 0.2859046757221222, -1.542486548423767, -0.8815060257911682, 0.5419787168502808, 0.31433573365211487, -0.1457531750202179, -1.1094144582748413, 0.0694383755326271, 0.9641690254211426, 0.7944797277450562, -0.6063145399093628, -0.3830992877483368, 1.2276216745376587, 1.1188971996307373, 0.6434134244918823, 1.5957591533660889, -1.187555193901062, 0.5992385149002075], [-0.2695331871509552, -0.309347540140152, -0.6318716406822205, -1.684620976448059, 2.4257190227508545, -0.26130998134613037, 1.754563331604004, -0.5706958770751953, 0.5579365491867065, -0.32727208733558655, 0.8635974526405334, 0.13470511138439178, 1.7318912744522095, -0.4730219841003418, 0.11408015340566635, -0.5011469125747681, 1.1209162473678589, 0.16689403355121613, 1.363677978515625, -0.9784282445907593, -1.2755234241485596, -2.4828994274139404, 0.46103429794311523, 2.8491246700286865, -1.0921716690063477, 0.43310439586639404, 0.38135942816734314, 1.6110678911209106, -0.46744340658187866, -0.82225501537323, -0.11863438040018082, 0.12333226203918457, -0.4372451603412628, 0.875273585319519, -0.8101925849914551, 0.36329904198646545, 0.758647620677948, -0.8619881272315979, -0.3177120089530945, -1.5365276336669922, 0.26698485016822815, 1.2210791110992432, 1.1749439239501953, -1.0878689289093018, 0.006035377737134695, 1.3340197801589966, 0.8704992532730103, 0.5324929356575012, -1.1398736238479614, 0.19845068454742432, 0.22704966366291046, -0.940392792224884, 0.9134700298309326, 0.912847101688385, 0.11502291262149811, -0.776099681854248, -0.20324856042861938, -0.2840484380722046, 0.5971876978874207, 0.19352541863918304, 1.2481448650360107, -0.707979142665863, -1.1327369213104248, 0.13331277668476105, -0.8579897880554199, -0.4508877694606781, -0.1891065388917923, -0.30794718861579895, 0.3150244355201721, -0.6816279292106628, -0.42226657271385193, 0.5270068645477295, -0.4385213553905487, 0.7792532444000244, 0.5604433417320251, 0.22106850147247314, 0.10911595821380615, 0.6689633727073669, 1.3459652662277222, 0.5238456726074219, -1.348879098892212, -1.2568384408950806, 0.7983898520469666, 0.5591875314712524, -2.093559741973877, -0.056468572467565536, 0.306503027677536, 0.3726295828819275, 0.29450303316116333, -1.1683138608932495, -0.6207178235054016, 0.39560332894325256, 1.1619911193847656, 0.291605144739151, 0.019531739875674248, 0.9248834848403931, -1.0937235355377197, -0.9236406087875366, -0.33658576011657715, 0.8776636123657227, -2.287428617477417, 0.30094051361083984, 0.26846596598625183, 1.8740713596343994, -0.4474945664405823, -1.7512142658233643, 0.45967718958854675, -0.47873377799987793, -0.5549492835998535, -1.3557610511779785, -0.28155967593193054, 1.7105299234390259, -1.539717197418213, -0.4389551877975464, -0.05085050314664841, -1.3814440965652466, -1.140587329864502, 0.28735387325286865, 1.1443670988082886, 0.23115384578704834, -0.21360456943511963, 0.10610935091972351, -0.1866634339094162, 0.10537239164113998, -1.3530704975128174, 0.5087850093841553, 0.7222610712051392, 1.6442407369613647], [0.923538327217102, 0.011798301711678505, -1.928048849105835, 0.016464294865727425, 0.4561441242694855, -0.8903381824493408, 0.4075443744659424, -0.577781617641449, 1.2962892055511475, -0.713874101638794, 1.1805000305175781, -0.767350971698761, 0.4546554684638977, 1.0525743961334229, -0.8313953280448914, -0.22319543361663818, 0.1385084092617035, 0.6546497344970703, -0.8577592372894287, 0.9857004880905151, -1.4371488094329834, -1.0280766487121582, -0.08387655019760132, -0.4785054624080658, 0.3176158368587494, -0.8331941962242126, -0.6846879720687866, 0.4292420446872711, -0.5334405899047852, 1.3222873210906982, -0.864356279373169, 1.0388529300689697, -0.17911173403263092, 0.3543356657028198, 0.3843701481819153, -0.7284595370292664, -1.0331928730010986, -0.11953391879796982, -0.9234950542449951, 0.9519436359405518, -0.7791146039962769, -0.5904024243354797, -0.49980050325393677, -0.2967246174812317, -0.16539457440376282, 0.9716224074363708, -1.646610975265503, 0.8328666090965271, -1.1352026462554932, -0.4781883955001831, 1.6361225843429565, 1.9225201606750488, 0.9027097225189209, 0.24965249001979828, -0.7370467185974121, -0.059873078018426895, -0.6331245303153992, 1.279050350189209, 0.17121794819831848, 1.0051517486572266, 0.6151435971260071, -0.04921974614262581, -0.6569052338600159, -0.48708778619766235, -0.2757401764392853, 0.29034605622291565, -0.21691858768463135, 0.7679716944694519, 0.23884069919586182, 1.482924461364746, -1.9454283714294434, 0.005408360622823238, 0.02759602479636669, 1.4160407781600952, -1.2953062057495117, -0.8375303745269775, 0.6043328046798706, -0.39908817410469055, 1.1131556034088135, 1.0053315162658691, 0.5314374566078186, 0.48083338141441345, -0.1818741112947464, 0.7969087958335876, -0.7137696146965027, 1.1917874813079834, 1.2103937864303589, 0.09012483060359955, 0.22011011838912964, -1.0215539932250977, -0.08839914202690125, 0.9943906664848328, -0.285692036151886, -1.2000935077667236, -0.2502129375934601, 1.090449333190918, -0.09819325059652328, -0.4028122127056122, -0.44498002529144287, -0.4798940420150757, -0.14297351241111755, 0.0007790228701196611, 0.7390002608299255, -1.5490177869796753, 1.3627253770828247, 0.09935165196657181, 1.2428719997406006, 1.5515698194503784, -0.10795468091964722, 0.32910284399986267, 0.53515625, -0.31032517552375793, 0.38813313841819763, -0.7585251331329346, -0.10906168818473816, -0.4591847062110901, -1.0613497495651245, -0.37782177329063416, 0.048085931688547134, -1.2362349033355713, -0.4152269661426544, 0.5433588624000549, 0.06543770432472229, 0.3260799050331116, -0.5385910868644714, 0.4347583055496216, 0.8717624545097351, 0.3778294026851654], [-2.4144110679626465, 0.49042561650276184, -1.0622423887252808, 1.2315529584884644, 0.47610217332839966, 1.3547776937484741, -0.7394624948501587, 1.2417206764221191, -0.20863819122314453, -0.8005092144012451, 0.509894609451294, -0.7392249703407288, -1.1509848833084106, 1.0719856023788452, -1.659558892250061, -1.2031841278076172, 0.10354962199926376, 0.30012139678001404, 0.8757548332214355, 2.783130168914795, 0.9263193607330322, 0.44501128792762756, 0.16114187240600586, -1.250434160232544, -0.569173276424408, -1.0817286968231201, -0.8352149128913879, -1.4175435304641724, 1.4001381397247314, -0.0022404894698411226, 0.001740982523187995, 0.8607559204101562, -0.1272742748260498, -0.6536925435066223, 1.036268711090088, -0.8471295833587646, 0.33458781242370605, -2.0645768642425537, -0.736706018447876, 0.9195486307144165, -0.47674572467803955, -0.4227345287799835, 1.245920181274414, -1.491919994354248, -0.06583869457244873, -0.16006620228290558, 0.04158218204975128, -0.4821186661720276, -2.270476818084717, -0.003867842722684145, 0.9429552555084229, 0.4223549962043762, 0.9233242273330688, -0.3723262548446655, 0.6146103739738464, 0.745543897151947, 0.6826884746551514, 0.347808301448822, 1.2560532093048096, -1.7418651580810547, 0.2971908748149872, -0.28453153371810913, -1.0786305665969849, -0.7094153165817261, -0.9087724089622498, -0.8358242511749268, -1.039304256439209, -0.07257754355669022, 0.3331771790981293, -0.08228186517953873, -1.9153333902359009, 0.03830356523394585, 0.018918916583061218, -0.8789385557174683, 1.9905086755752563, -0.46393558382987976, -0.5305590033531189, -0.29282861948013306, -0.6373071670532227, -0.6346526741981506, 0.5750676393508911, 0.859675943851471, -0.23885951936244965, -2.1380999088287354, -1.8855570554733276, -0.964943528175354, -1.1793434619903564, -0.6120355725288391, 0.6178023219108582, 0.3730791211128235, 0.4517830014228821, 0.2829441428184509, -0.5363568067550659, 0.8080276250839233, -1.8078216314315796, -0.19679179787635803, 0.7148056626319885, -0.8058091402053833, 0.04752405732870102, 0.43753179907798767, -0.797168493270874, -0.2260829359292984, -1.1815972328186035, -2.753243923187256, -0.9225694537162781, 0.5048636794090271, 0.23367278277873993, -0.15687328577041626, 1.6465096473693848, 0.1177828460931778, -1.1301333904266357, -0.6381511688232422, -1.909204363822937, -1.4132180213928223, -0.8230200409889221, -0.197514146566391, -0.31003129482269287, 1.4443966150283813, 0.8253209590911865, 0.9221794605255127, -1.267724871635437, 1.407050371170044, 0.5556620955467224, 0.650969922542572, -0.7304061651229858, -1.1610392332077026, 0.723530650138855, -1.1895368099212646], [-0.3780601918697357, 0.28037822246551514, -0.4947989881038666, -0.9071521162986755, -0.6842723488807678, 0.5763227939605713, -0.5256108045578003, -0.31035441160202026, 0.11042878031730652, -0.048893216997385025, -0.12027116119861603, 0.07991813868284225, -0.1580689698457718, 0.10878082364797592, -1.106296420097351, -0.0600304938852787, 0.2754054367542267, -0.7106446623802185, -1.0630923509597778, -0.8493558168411255, 0.7478923797607422, -0.15316620469093323, -0.5357431769371033, 0.015563255175948143, 1.0483084917068481, -0.5998208522796631, 0.6161277890205383, 0.4587359130382538, -1.0419739484786987, 1.128847360610962, -0.08662564307451248, 0.1979936808347702, 0.334410160779953, -0.2665177881717682, 0.610948383808136, -0.6978105902671814, 0.8134413957595825, 0.8486576676368713, -0.6873680353164673, -0.24278375506401062, 0.4034460186958313, -0.013714423403143883, 0.6232460737228394, -0.5604997873306274, 0.20301203429698944, 0.8389721512794495, -0.7173169255256653, -0.21937204897403717, -0.848225474357605, -0.16488681733608246, 1.2738887071609497, 0.47324952483177185, 0.6014415621757507, -0.4955163300037384, 0.4238628149032593, 0.9242141246795654, -0.47934621572494507, -0.3390772044658661, -0.9773179292678833, 0.5117330551147461, 0.9039026498794556, -0.8785229325294495, -0.7803927659988403, 0.8762900233268738, 0.05174999684095383, 0.8312031626701355, 0.17029191553592682, -0.05282233655452728, 0.42773762345314026, 1.1813018321990967, -0.7691391706466675, -0.8389947414398193, 0.8160398602485657, -0.3915821611881256, -0.4665280282497406, 0.26834216713905334, -0.5605854392051697, -0.5594318509101868, -0.6381967663764954, 0.3975960910320282, -0.21617650985717773, -0.2561687231063843, -0.11551408469676971, 0.7760586142539978, -0.9800249934196472, 0.5352039337158203, 0.18982507288455963, 1.0353505611419678, 0.6243099570274353, 0.405219703912735, 0.9749799966812134, -0.32110360264778137, -0.6133750081062317, 0.3908974230289459, 0.3634125292301178, -0.5952608585357666, -0.4451247751712799, -0.17394579946994781, 0.6748621463775635, -0.5309749245643616, 1.0491777658462524, -0.12864500284194946, 0.44035473465919495, -0.43473997712135315, -0.31680405139923096, 0.2322326898574829, 0.5484787225723267, -0.7858778238296509, 0.9360371232032776, 1.3612616062164307, 0.9312008023262024, -0.3769755959510803, 0.5608712434768677, -1.4265062808990479, -0.6195750832557678, -0.8427914977073669, -0.229610875248909, 0.588690459728241, -0.9971646666526794, 0.7256054282188416, -0.5887502431869507, 0.04202025756239891, 0.619873046875, 0.476735383272171, 0.20222362875938416, 0.8522557616233826, 0.543998122215271, -1.051437497138977], [0.6990330815315247, -0.5232024788856506, -0.8840240240097046, 0.276035338640213, 0.4329844117164612, 0.8984384536743164, 0.3587661385536194, -0.7328379154205322, 1.2999725341796875, 0.9397130608558655, 1.250518560409546, 0.19540844857692719, -0.776475727558136, -0.7006767392158508, -0.34716877341270447, -0.1011706292629242, -0.7049968838691711, 0.5340977907180786, -0.06546700745820999, 0.39233633875846863, -2.038694381713867, -0.07735035568475723, 1.4269248247146606, 0.6119242310523987, -0.6728346347808838, 0.6123678088188171, -0.27133631706237793, -0.046166885644197464, -0.32586726546287537, -1.4254997968673706, 0.201448455452919, -0.1584390103816986, -0.06597109884023666, 0.4105047285556793, 0.45613014698028564, 0.13423208892345428, 0.13592642545700073, 0.3430565595626831, 0.25058016180992126, -0.45505478978157043, 0.6036354303359985, -0.6831159591674805, 0.6927462816238403, -0.9410855770111084, -0.08444587886333466, -0.5596500039100647, 0.025392841547727585, 0.17834563553333282, -0.5112324357032776, -0.35065245628356934, -0.03697933629155159, -1.4139199256896973, 0.10524596273899078, 0.05844563618302345, 0.0875275731086731, -1.3939582109451294, -1.8064833879470825, -0.24956552684307098, 0.5946993827819824, 0.20262651145458221, 0.6238992810249329, 1.4309824705123901, 1.2749123573303223, -0.0650344267487526, -0.8780106902122498, 1.0698477029800415, -0.8262432813644409, 1.2505548000335693, -0.1840122938156128, 0.7767688632011414, 0.26039204001426697, -0.17563185095787048, -1.5271567106246948, -0.8561234474182129, 0.9727110266685486, -0.09961821883916855, -0.36117228865623474, -0.274701863527298, -0.42946892976760864, -0.38136380910873413, -0.059427302330732346, -0.888779878616333, -0.13433170318603516, 0.5257892608642578, 0.9239994883537292, -0.9459329843521118, 0.5300081968307495, -0.31017017364501953, 0.05052463710308075, -0.8805010318756104, -0.15095610916614532, 1.1408970355987549, 0.4064563810825348, -0.5642099380493164, 1.3421742916107178, 0.0325038768351078, 0.7992362380027771, -0.08756031095981598, 0.5248826742172241, -0.07790687680244446, -0.813071608543396, 0.09039045870304108, -0.6775305271148682, 0.024632563814520836, 0.1788949966430664, 0.5770671367645264, -0.7717962265014648, 0.671073317527771, 1.2003059387207031, 0.9489904642105103, -0.7074584364891052, 0.3271539807319641, -0.08864013850688934, 1.0860967636108398, -0.26696109771728516, -0.5239741206169128, 0.5634498596191406, -0.09032221883535385, 1.9359245300292969, -0.049643177539110184, -0.007739376276731491, 1.6000189781188965, -0.4867752194404602, -0.21847297251224518, -0.33135882019996643, -0.739715576171875, 0.4125785529613495, 0.8463180065155029], [0.026374708861112595, 1.0849997997283936, 0.4920670986175537, 1.0508161783218384, -0.9201567769050598, -0.7713696956634521, 0.3199034333229065, 0.9210917353630066, -0.09977574646472931, 1.196071743965149, -0.6451916098594666, -0.3500010371208191, -0.18838010728359222, -0.5280471444129944, 0.809834361076355, 1.6086491346359253, 1.7198588848114014, -1.6757792234420776, -0.6089913249015808, 1.0594738721847534, -0.9542312622070312, -0.9464818835258484, 2.0887084007263184, -0.7431817054748535, 0.7247632741928101, -1.3976362943649292, -1.3509591817855835, 0.6549085974693298, 0.14598077535629272, -0.4408480226993561, -1.099480390548706, 1.735695719718933, 0.41415953636169434, 1.300318956375122, -0.8266657590866089, 1.6250717639923096, 0.4264639616012573, 0.255063533782959, 0.15329694747924805, 1.7356983423233032, 0.6813804507255554, -0.3810989558696747, 0.7249737977981567, -1.0396872758865356, -0.0545598641037941, 0.4494887590408325, -0.7629303932189941, 0.7795358300209045, -0.4491612911224365, -1.6700445413589478, -0.7101777195930481, -0.57056725025177, 0.6579586863517761, 0.2832104563713074, -1.1777855157852173, -0.8901717066764832, 0.42597436904907227, 0.841198742389679, 0.9340482950210571, 0.2616949677467346, -1.043402910232544, 0.7707757949829102, 1.400718092918396, 1.0668041706085205, 2.223904609680176, -0.2708052396774292, 2.0351696014404297, 0.9908372163772583, 0.512578547000885, -1.2531700134277344, 0.7263351678848267, 0.5581474304199219, -0.23636400699615479, -1.3713425397872925, 0.3551519215106964, -1.1099464893341064, -0.6930578947067261, 0.045738983899354935, 0.2577539384365082, 0.9084249138832092, -1.7320057153701782, 0.5630104541778564, -0.43365857005119324, 0.39431527256965637, 0.09907667338848114, 0.3721662759780884, -0.794245719909668, 0.9896541833877563, -0.11385513097047806, 0.8744410872459412, 0.15213745832443237, 1.9488340616226196, -0.23205448687076569, -0.6399612426757812, 0.7753121852874756, 0.14510616660118103, 0.7260564565658569, -0.003327287035062909, -1.2342935800552368, -0.7979687452316284, -0.6681111454963684, -0.0911456048488617, 0.8547261357307434, 0.32049524784088135, -0.21252860128879547, 1.4248183965682983, 1.9937556982040405, 1.1037631034851074, 0.5070485472679138, 0.029066026210784912, 0.46053507924079895, 0.5503823757171631, -0.9300466775894165, -0.7311651706695557, 1.1031689643859863, -0.8710009455680847, 0.9783403277397156, 1.0511523485183716, 0.15947698056697845, 0.730562686920166, -0.6620100736618042, -0.8902187943458557, -1.686145305633545, 1.3582667112350464, 0.6021538972854614, 0.2581826150417328, -0.6613928079605103, 1.2202911376953125], [1.0349210500717163, -0.8249275088310242, -1.083389163017273, 0.523518443107605, -0.42010751366615295, 0.9084925055503845, -1.295718789100647, 1.2541942596435547, 0.857302725315094, 1.0367817878723145, -0.6030129194259644, -0.575703501701355, -1.624088168144226, -0.32488828897476196, 0.046250272542238235, 0.030605772510170937, 0.2411755621433258, -0.45212289690971375, 0.17779392004013062, -0.7767841815948486, 0.2217249870300293, 1.5293515920639038, 0.015196879394352436, -0.259277880191803, -0.15950369834899902, 0.012575340457260609, 0.8296820521354675, -0.5491845011711121, -0.5402612090110779, -0.759118914604187, -0.030158912762999535, -0.444548100233078, 0.8565775156021118, 0.3754415512084961, -0.2982224225997925, -0.44370484352111816, 1.3142071962356567, 0.26742592453956604, -0.9698166251182556, 0.25672033429145813, -0.6192083358764648, -0.8820878267288208, 1.064213514328003, 0.22263579070568085, 1.0777473449707031, 0.19235682487487793, 0.7084434032440186, 0.7520149946212769, -0.5052698850631714, -1.5738911628723145, 0.21424929797649384, -1.6286637783050537, 0.5155035257339478, 0.8820251226425171, -0.05052752420306206, 0.7954167127609253, 0.6744330525398254, -0.392363041639328, -1.1529884338378906, 1.2797613143920898, -0.7781946659088135, -0.08566027134656906, -0.03238682448863983, 1.3397183418273926, -0.5287761092185974, -0.35809460282325745, 0.6664445400238037, 0.5093613266944885, -1.130751609802246, -0.5564640760421753, 1.2950760126113892, 0.5477750897407532, -0.3669847846031189, 0.6908241510391235, -0.5746707320213318, -0.7553067207336426, 0.8478793501853943, -1.010753870010376, -0.8457480072975159, -0.5882319808006287, -0.6146650314331055, 1.0037668943405151, -0.7083243131637573, 0.6631637811660767, 0.8720045685768127, -1.2795847654342651, -0.8086557984352112, 0.11384011059999466, -0.5432423949241638, -0.8346911072731018, 0.2338695228099823, -0.5657603144645691, 0.24238428473472595, 0.14778783917427063, 0.1402527540922165, -0.6554139256477356, 0.8072009682655334, -0.6862423419952393, 0.3818233013153076, -0.1265684962272644, 0.6731035709381104, -0.08855509012937546, 0.8754285573959351, 0.2763507068157196, -0.15107353031635284, -0.8142254948616028, -0.11069069057703018, -0.8699901103973389, -0.7603922486305237, 0.28140899538993835, -1.3052701950073242, -0.3534405529499054, 1.0921626091003418, -0.1421016901731491, -0.08054842054843903, 0.8946662545204163, 0.35978373885154724, -0.08637011796236038, 0.6069810390472412, 0.7070584297180176, 0.5144018530845642, 1.1559287309646606, -0.7617517113685608, 0.1753881424665451, -0.6911436915397644, 0.748368501663208, -0.5483357310295105, -0.019823245704174042], [-0.11167487502098083, 0.20569084584712982, -0.3871927857398987, -0.3337622880935669, -0.2435271143913269, 0.06323426961898804, -0.2815130054950714, 0.15285921096801758, 0.046626873314380646, 0.23808349668979645, 0.07388263195753098, 0.051338743418455124, 0.38773927092552185, 0.44524288177490234, -0.10945416986942291, 0.26644548773765564, 0.2948544919490814, 0.2671665847301483, -0.07994092255830765, -0.3569682836532593, -0.32416385412216187, 0.2535465955734253, -0.05902639031410217, -0.2814474403858185, -0.29395318031311035, -0.5473294854164124, -0.05187863111495972, 0.241562157869339, 0.16421784460544586, 0.19166536629199982, 0.0229769516736269, -0.261644184589386, 0.4065502882003784, 0.32614704966545105, -0.23258797824382782, 0.02033510059118271, -0.14470788836479187, 0.018529081717133522, 0.23950506746768951, -0.4441109299659729, 0.04323709011077881, 0.09277810156345367, 0.3982389569282532, 0.47524312138557434, 0.05421127378940582, -0.2896607220172882, -0.13140401244163513, 0.08165330439805984, -0.08202667534351349, 0.23018214106559753, -0.21027952432632446, 0.2393559217453003, 0.1453545242547989, -0.1953316181898117, 0.23039387166500092, -0.027864422649145126, -0.051642876118421555, -0.10967851430177689, -0.19148969650268555, 0.35561269521713257, -0.47640377283096313, -0.5358337759971619, 0.4122912287712097, 0.21681088209152222, -0.4206334054470062, 0.30832862854003906, -0.018632376566529274, -0.10606544464826584, -0.36562711000442505, 0.404546320438385, -0.19235259294509888, 0.26552271842956543, -0.008826175704598427, -0.2802635431289673, 0.015048801898956299, -0.25856101512908936, -0.2810770869255066, 0.1665932983160019, 0.05236860364675522, -0.3602634072303772, -0.5572049021720886, 0.2985793650150299, -0.1530958116054535, -0.3335517942905426, -0.01737559214234352, 0.2104215770959854, 0.4741292893886566, -0.00922052375972271, -0.26261118054389954, 0.17321959137916565, -0.06525237113237381, 0.1143222451210022, -0.36553463339805603, 0.23461487889289856, -0.20912669599056244, 0.3312569856643677, 0.24928413331508636, -0.10947513580322266, -0.15162721276283264, 0.07217881828546524, 0.04992859810590744, -0.2639845013618469, -0.1702929139137268, 0.22779521346092224, 0.10643719136714935, -0.3613349199295044, 0.20005780458450317, 0.1902497261762619, -0.4767971336841583, -0.41566041111946106, -0.3889848291873932, -0.40469890832901, 0.0008121700957417488, -0.4507104456424713, 0.32995909452438354, 0.186543270945549, -0.3770701289176941, 0.23033209145069122, -0.21849165856838226, 0.3975210189819336, -0.5464235544204712, 0.37082257866859436, -0.3752664029598236, -0.49618294835090637, -0.17513638734817505, 0.3144535422325134, 0.2925233542919159, 0.20761942863464355], [-0.20689447224140167, -0.20521149039268494, -0.10935911536216736, -0.38730940222740173, -0.04118548333644867, -0.14304228127002716, -0.26779472827911377, 0.0988091230392456, -0.2733648121356964, 0.045075543224811554, 0.05442693084478378, -0.4749290645122528, -0.03759234398603439, 0.19890260696411133, 0.0020267930813133717, 0.036989521235227585, 0.06825355440378189, -0.21052534878253937, -0.13593029975891113, -0.010220499709248543, 0.16922856867313385, -0.12712518870830536, -0.2332817167043686, 0.1922423392534256, -0.20105145871639252, -0.4862869679927826, -0.42781439423561096, -0.18002691864967346, -0.04017210379242897, 0.11633859574794769, -0.1557791531085968, 0.40775203704833984, -0.03795803338289261, 0.02287851832807064, -0.4312247633934021, -0.15379545092582703, 0.3392500877380371, -0.015338022261857986, -0.4240444302558899, 0.404176265001297, -0.2920367419719696, 0.22253088653087616, -0.14562253654003143, -0.00886662770062685, 0.17207469046115875, -0.09210917353630066, 0.0015011252835392952, -0.17171692848205566, 0.5016072988510132, -0.15682022273540497, -0.4100806713104248, -0.09856858849525452, 0.1269647777080536, 0.14309315383434296, -0.13909496366977692, 0.31696614623069763, -0.2471853494644165, -0.030800214037299156, -0.2181864082813263, 0.026613419875502586, -0.19360195100307465, 0.19777622818946838, -0.1587003618478775, -0.35339680314064026, -0.12588301301002502, 0.7122440338134766, 0.45759809017181396, -0.020682141184806824, -0.45254480838775635, -0.02158650942146778, 0.005582704208791256, -0.052836231887340546, -0.14121155440807343, -0.2030360996723175, 0.10961928963661194, -0.06787288188934326, 0.1925392746925354, -0.13517436385154724, -0.13499893248081207, -0.27860027551651, 0.26960885524749756, -0.0955844596028328, -0.4203680753707886, -0.36047428846359253, -0.1630907952785492, -0.10771103948354721, 0.16337037086486816, -0.41371220350265503, 0.6428767442703247, -0.0009416727116331458, 0.011881064623594284, -0.31683698296546936, 0.08913777768611908, 0.28724339604377747, -0.11158112436532974, 0.04027760028839111, -0.011919187381863594, -0.23837968707084656, 0.09312236309051514, -0.42468658089637756, 0.13951696455478668, -0.17542709410190582, 0.22174926102161407, -0.06631890684366226, 0.12481904774904251, -0.21603727340698242, -0.25787222385406494, 0.25599053502082825, 0.45816758275032043, -0.4492776095867157, -0.7064633369445801, -0.21768248081207275, 0.15281102061271667, 0.6875252723693848, 0.26559963822364807, -0.5137184858322144, -0.06672480702400208, 0.19899192452430725, -0.009631434455513954, 0.48334547877311707, -0.43472257256507874, 0.44708749651908875, -0.32179707288742065, -0.2127266675233841, 0.16774217784404755, -0.21435172855854034, 0.23898100852966309, 0.16750802099704742], [-0.5444625020027161, -0.353897362947464, 0.02646244503557682, -0.4339611232280731, 0.2227858304977417, 0.3252379298210144, 0.29932475090026855, 0.016949603334069252, 0.19946224987506866, 0.19425806403160095, 0.04531388357281685, -0.45737728476524353, -0.49471476674079895, -0.3292100727558136, 0.40826061367988586, 0.0519104041159153, 0.32662343978881836, -0.049673616886138916, -0.3670244514942169, 0.1640355885028839, 0.2249312847852707, 0.1706438511610031, 0.282670259475708, 0.1961640864610672, -0.3821488916873932, 0.17102696001529694, 0.17435958981513977, 0.390076220035553, 0.011071105487644672, 0.037858493626117706, 0.3176617920398712, 0.24133117496967316, -0.406904011964798, -0.1352454125881195, -0.18455266952514648, -0.5756032466888428, -0.49885764718055725, 0.15255193412303925, 0.18033796548843384, 0.24013309180736542, 0.08738028258085251, 0.1998172253370285, -0.2167605757713318, 0.35121530294418335, -0.24172577261924744, -0.059502262622117996, -0.39842087030410767, -0.25755494832992554, 0.10669968277215958, -0.14619113504886627, -0.002704851096495986, 0.08251986652612686, -0.5300343632698059, 0.12469719350337982, 0.24564187228679657, 0.029428955167531967, 0.2163553237915039, 0.316917359828949, -0.36664772033691406, -0.04528519883751869, -0.3104369044303894, 0.16871587932109833, -0.15743772685527802, -0.04711545631289482, -0.174297496676445, 0.21276868879795074, -0.16219572722911835, -0.12753503024578094, 0.1871369183063507, 0.04384222626686096, -0.36460644006729126, -0.12371192127466202, 0.017774419859051704, -0.21491283178329468, 0.6234928369522095, -0.15059438347816467, -0.25496912002563477, -0.10440537333488464, -0.10307226330041885, -0.10642106831073761, 0.19600702822208405, -0.05120161548256874, 0.2602514922618866, -0.07596080750226974, -0.0788736641407013, -0.2929929494857788, -0.25075167417526245, 0.02894306555390358, -0.3106161952018738, 0.09029380977153778, -0.449186772108078, 0.24290218949317932, -0.20747539401054382, -0.411188542842865, -0.5765905976295471, 0.0751478374004364, -0.23659175634384155, -0.46032458543777466, 0.10239634662866592, -0.07545632869005203, -0.14582794904708862, 0.04555728659033775, 0.12416954338550568, -0.22394369542598724, 0.29095110297203064, 0.13958388566970825, -0.22004032135009766, -0.5144568681716919, -0.04603312909603119, 0.013707232661545277, -0.3038974404335022, -0.09902290254831314, -0.19953575730323792, 0.11789030581712723, -0.20575030148029327, -0.4811359941959381, 0.34758150577545166, -0.03593188896775246, -0.5190622210502625, -0.4938567578792572, 0.053322385996580124, -0.012000391259789467, -0.27343055605888367, -0.34442225098609924, 0.12551437318325043, -0.009514491073787212, -0.033777229487895966, 0.15891112387180328], [-0.27035224437713623, 0.05256805568933487, -0.23564167320728302, -0.4972466230392456, -0.12910902500152588, 0.03581656515598297, 0.23830026388168335, -0.38936010003089905, 0.4259224534034729, 0.0790332779288292, -0.1349353790283203, -0.01095156092196703, 0.14714856445789337, -0.2378893792629242, 0.10624735802412033, -0.07717090845108032, -0.2090190052986145, 0.07297266274690628, 0.045527100563049316, -0.14270290732383728, -0.00856692623347044, -0.39805713295936584, 0.10647016763687134, -0.30411145091056824, -0.020702213048934937, -0.32192686200141907, 0.35372403264045715, 0.26792392134666443, -0.425172358751297, -0.1955716609954834, -0.1788025051355362, -0.36062711477279663, -0.16059164702892303, -0.47938454151153564, -0.09868364781141281, -0.10729119181632996, 0.24590599536895752, -0.2284908890724182, -0.08597588539123535, 0.45558902621269226, 0.1534556895494461, -0.38299560546875, 0.12850207090377808, 0.2870488464832306, 0.3656077980995178, -0.10032696276903152, 0.13377460837364197, 0.24346815049648285, 0.3783422112464905, 0.17190313339233398, -0.2758069932460785, -0.040509629994630814, 0.2309705764055252, 0.027486519888043404, 0.18356019258499146, -0.17025858163833618, 0.2000536471605301, -0.1777603179216385, -0.3561125099658966, 0.033559251576662064, -0.3753422200679779, -0.506551206111908, -0.31461676955223083, -0.0948006883263588, -0.29311320185661316, 0.3348222076892853, -0.17716063559055328, -0.2840774357318878, -0.06722478568553925, -0.18505562841892242, -0.013624253682792187, -0.14896634221076965, 0.1614682823419571, -0.3678041100502014, -0.15350428223609924, 0.05444859340786934, 0.2640359401702881, -0.1961609423160553, -0.017884377390146255, -0.003523518331348896, 0.5042707920074463, -0.09176658093929291, -0.6158608198165894, 0.13893748819828033, -0.23921626806259155, -0.16693781316280365, 0.3861229419708252, -0.3875108063220978, 0.35931235551834106, 0.0715007483959198, 0.29612407088279724, 0.3102269768714905, 0.1093958243727684, 0.09856249392032623, -0.5161337852478027, -0.46855616569519043, 0.2033141553401947, 0.12024595588445663, 0.26481878757476807, -0.36195892095565796, 0.09203057736158371, 0.28486892580986023, 0.09501241892576218, 0.08044037967920303, 0.10271517932415009, -0.07270217686891556, 0.10036734491586685, 0.27627384662628174, -0.40743353962898254, 0.06153817102313042, 0.16381022334098816, 0.01697787456214428, -0.21282753348350525, 0.2869992256164551, 0.2699677348136902, -0.08645007014274597, 0.06094936653971672, -0.042347561568021774, -0.12941038608551025, 0.20875801146030426, 0.2777080833911896, 0.332145094871521, 0.3990221619606018, 0.23930387198925018, 0.14029058814048767, 0.1250104308128357, -0.2567252218723297, -0.269275039434433], [0.04821294546127319, -0.04179873317480087, 0.22644196450710297, 0.03912556916475296, -0.09687968343496323, -0.04919496923685074, 0.03272879868745804, 0.09284117072820663, -0.1190941333770752, 0.3215663433074951, 0.24595415592193604, -0.326219767332077, -0.21042896807193756, -0.23808050155639648, 0.2548619508743286, -0.5435225963592529, 0.3730146586894989, -0.005794684402644634, 0.07118981331586838, 0.3373320996761322, -0.026206573471426964, -0.18448252975940704, 0.11835221201181412, -0.6677597165107727, -0.08030620217323303, 0.19808435440063477, -0.08810164034366608, 0.40846025943756104, -0.08839592337608337, 0.15777826309204102, -0.058802951127290726, 0.0750899389386177, 0.525017261505127, -0.5081076622009277, 0.3458678126335144, 0.15586154162883759, 0.015154114924371243, 0.039458002895116806, 0.26636940240859985, 0.09678733348846436, -0.22871039807796478, -0.4578627049922943, -0.26393240690231323, 0.29447320103645325, 0.07568188011646271, 0.0837295800447464, 0.022380780428647995, -0.041620854288339615, -0.16598983108997345, 0.19936950504779816, -0.2337331920862198, -0.08995269238948822, 0.22140620648860931, -0.3436863124370575, 0.019334834069013596, 0.3588546812534332, 0.15324090421199799, -0.2059783786535263, -0.13009275496006012, 0.05429930239915848, -0.02898569405078888, 0.30867713689804077, -0.29471543431282043, -0.23949599266052246, -0.09165611863136292, 0.06838124245405197, -0.1735396534204483, 0.33821770548820496, 0.11547115445137024, -0.3488052785396576, -0.22286729514598846, -0.22076557576656342, 0.6027566194534302, -0.03375384211540222, 0.3222848176956177, 0.06319551169872284, 0.12677234411239624, 0.2913171648979187, -0.18587476015090942, -0.21348994970321655, -0.20974136888980865, -0.026130350306630135, 0.3276859521865845, -0.13749736547470093, -0.10385037213563919, 0.03162570297718048, 0.5166413187980652, 0.2488996982574463, -0.1180277168750763, -0.12860846519470215, -0.144375279545784, 0.4964735209941864, -0.10854557901620865, -0.2977367341518402, 0.14878179132938385, 0.00800523441284895, -0.11987168341875076, -0.08940484374761581, 0.04371871054172516, -0.5184050798416138, -0.1941119283437729, -0.15698404610157013, -0.4621799886226654, 0.24557648599147797, 0.11460749059915543, 0.22998367249965668, 0.3137081563472748, -0.05693454295396805, 0.1387646198272705, 0.05645063892006874, -0.6758610606193542, -0.2235027253627777, -0.30039575695991516, -0.05113483592867851, 0.3019891679286957, 0.3784649074077606, 0.08975950628519058, -0.11984779685735703, -0.0906512662768364, -0.028193166479468346, -0.3097245693206787, -0.03352327272295952, -0.47479650378227234, 0.06100217625498772, 0.3065849840641022, 0.37662070989608765, 0.2894473373889923, 0.2646319568157196], [0.16186778247356415, -0.07018003612756729, 0.45086532831192017, -0.10728801786899567, 0.14997568726539612, 0.04558979347348213, -0.16132307052612305, -0.05548594146966934, -0.14691948890686035, 0.3792247474193573, -0.07078185677528381, -0.10674113780260086, 0.038607753813266754, 0.17707659304141998, -0.07328348606824875, 0.1435651034116745, -0.2541210651397705, -0.22615371644496918, -0.105562224984169, 0.16483405232429504, -0.30097848176956177, -0.2549471855163574, 0.2859284281730652, 0.22633294761180878, -0.20543624460697174, -0.008589695207774639, 0.08989572525024414, 0.22503884136676788, -0.10761525481939316, 0.35564640164375305, -0.22106942534446716, 0.1492471843957901, -0.34942007064819336, 0.0970371887087822, 0.11501666903495789, 0.027405934408307076, -0.3052233159542084, -0.29613393545150757, -0.016235411167144775, 0.23313406109809875, 0.09575648605823517, -0.12992912530899048, 0.28984177112579346, 0.1884729564189911, 0.3652956187725067, -0.34992092847824097, -0.46497926115989685, -0.22186361253261566, 0.21204212307929993, 0.05184103175997734, 0.23377405107021332, 0.2895973026752472, -0.07660972326993942, -0.24529004096984863, 0.09737139195203781, 0.3377990126609802, -0.1884707361459732, -0.1422301083803177, -0.6385063529014587, -0.23607634007930756, 0.009196002967655659, 0.6698481440544128, 0.05229828506708145, -0.16934585571289062, 0.11845657974481583, -0.5810354948043823, -0.2563563883304596, -0.1389240026473999, 0.25612208247184753, -0.3403720557689667, 0.3063456118106842, -0.11876692622900009, 0.16886352002620697, -0.2876996695995331, -0.04516606405377388, -0.035645581781864166, -0.3121943175792694, -0.13973087072372437, -0.08472400158643723, 0.034035392105579376, -0.027627449482679367, -0.37750980257987976, 0.6041567325592041, 0.056227438151836395, -0.017276719212532043, -0.44274768233299255, -0.37418892979621887, -0.15625017881393433, -0.07422258704900742, -0.17857827246189117, -0.3536571264266968, 0.022689232602715492, 0.6134990453720093, -0.09932254254817963, -0.053892698138952255, 0.20724621415138245, -0.21214251220226288, -0.07936067879199982, -0.08185777068138123, 0.08757183700799942, 0.005279091186821461, 0.23324592411518097, 0.349890798330307, 0.14904379844665527, -0.07564226537942886, 0.423483669757843, -0.11390408128499985, 0.10345573723316193, -0.27679815888404846, -0.3044775128364563, -0.2181808054447174, 0.17140930891036987, -0.07429840415716171, -0.2654144763946533, 0.07107404619455338, 0.10839974135160446, 0.2631644010543823, -0.10616512596607208, -0.07987111806869507, -0.2902141809463501, 0.009947326965630054, -0.15244324505329132, -0.0018066774355247617, -0.18648910522460938, -0.4212045967578888, -0.09423640370368958, 0.2526549994945526, -0.21126697957515717], [-0.2135312557220459, -0.28509509563446045, 0.15748301148414612, -0.01614585891366005, 0.17368637025356293, -0.10947190225124359, 0.23669931292533875, 0.0226302407681942, 0.004872925113886595, -0.03674127161502838, 0.36287495493888855, 0.2313404083251953, 0.17967650294303894, -0.24097593128681183, -0.185336634516716, -0.41641151905059814, -0.5408796668052673, -0.10518355667591095, -0.026102669537067413, 0.30483201146125793, 0.341325968503952, -0.13080579042434692, 0.3781737685203552, 0.2040528506040573, 0.11359404772520065, -0.46232080459594727, 0.24309703707695007, -0.16988922655582428, 0.10612121224403381, -0.00879998505115509, -0.2275541126728058, 0.09851948916912079, 0.18982170522212982, -0.0926222950220108, -0.23691518604755402, 0.059153761714696884, 0.16498906910419464, -0.04268180578947067, -0.07061396539211273, 0.36837470531463623, -0.037716418504714966, -0.37592214345932007, -0.35719215869903564, -0.13559924066066742, -0.11839048564434052, 0.06767889112234116, -0.0602378286421299, -0.22140268981456757, -0.19404253363609314, 0.11215057969093323, -0.09388557821512222, -0.03968965262174606, -0.49059855937957764, -0.09359593689441681, 0.10156963765621185, 0.021312568336725235, -0.3146893382072449, -0.148699551820755, -0.1317448616027832, 0.10115455836057663, -0.15665532648563385, 0.05006583780050278, 0.47476986050605774, 0.27447509765625, 0.09804223477840424, -0.09347981959581375, -0.22468197345733643, -0.07141312956809998, -0.2042246311903, 0.14262476563453674, -0.20379677414894104, -0.2810664176940918, -0.024271665140986443, 0.26084476709365845, -0.21198348701000214, 0.39854368567466736, -0.1545308530330658, -0.08190871775150299, 0.23544836044311523, 0.16384924948215485, 0.1314115971326828, 0.22489452362060547, 0.35780221223831177, -0.08409340679645538, 0.1352073848247528, -0.09062656760215759, -0.24723240733146667, -0.4845680892467499, -0.021851863712072372, 0.008506515063345432, 0.027811501175165176, -0.3613137900829315, 0.44799163937568665, -0.148468479514122, -0.14638718962669373, -0.15279997885227203, -0.2261584997177124, -0.26249411702156067, 0.2119911015033722, -0.45436975359916687, 0.004876354709267616, 0.3387439548969269, -0.15145248174667358, -0.09528923034667969, -0.24519191682338715, -0.13569055497646332, 0.17072241008281708, 0.18897183239459991, 0.2749577462673187, -0.0035776023287326097, 0.2957734763622284, -0.4473994970321655, -0.06883946061134338, -0.11114984005689621, 0.08867205679416656, -0.09951649606227875, 0.3854078948497772, -0.269485741853714, -0.21029900014400482, 0.43408501148223877, 0.2121633142232895, 0.01680539920926094, -0.5167657732963562, 0.010301935486495495, -0.3132189214229584, 0.29641374945640564, 0.14446423947811127, -0.36303967237472534], [-0.09433025121688843, -0.08849063515663147, 0.2561175227165222, 0.09623665362596512, -0.0760810598731041, -0.448051780462265, 0.28692761063575745, 0.08017463237047195, 0.20564304292201996, 0.3005085587501526, 0.07923951745033264, 0.02144605666399002, 0.19498392939567566, 0.5220109224319458, -0.4110828936100006, 0.3013876676559448, -0.08825816214084625, -0.09758652746677399, 0.42800721526145935, -0.11679891496896744, 0.23090514540672302, 0.21715253591537476, 0.25160977244377136, 0.1651879847049713, -0.08367054909467697, 0.32894575595855713, -0.16809046268463135, 0.2343141734600067, 0.42977410554885864, -0.11404001712799072, 0.06285753846168518, -0.18334046006202698, -0.03761959448456764, -0.03595585748553276, 0.03454550355672836, 0.31910255551338196, -0.22322089970111847, 0.4102298319339752, -0.29763907194137573, 0.3351914584636688, 0.3037443459033966, -0.1520349532365799, -0.3958384096622467, -0.06948555260896683, -0.4939682185649872, 0.10301483422517776, -0.05070655792951584, -0.03951682150363922, -0.1302996277809143, -0.3112194240093231, 0.15575747191905975, -0.012841218151152134, 0.0314854197204113, -0.1744583696126938, 0.01880037412047386, 0.2761765718460083, 0.20865964889526367, 0.16888092458248138, 0.251676082611084, 0.1802881509065628, 0.15746603906154633, -0.2193002849817276, -0.4377289414405823, -0.26180216670036316, -0.2994236350059509, 0.4134904444217682, -0.3825663626194, 0.05858485400676727, -0.33843812346458435, -0.1741199791431427, 0.06898122280836105, -0.19352014362812042, -0.16979263722896576, -0.6920568346977234, -0.0050554354675114155, -0.1533360481262207, 0.17286178469657898, -0.1961345672607422, -0.21448543667793274, -0.1534711867570877, 0.0395822674036026, 0.32531893253326416, -0.3475661873817444, 0.032909493893384933, -0.1166643351316452, 0.29665035009384155, -0.15858051180839539, 0.259844034910202, -0.46520012617111206, -0.5037451982498169, 0.2252032607793808, -0.042296335101127625, 0.12677930295467377, -0.2807404696941376, -0.03522667661309242, -0.3312629461288452, 0.18702749907970428, 0.031033385545015335, -0.017822660505771637, 0.0608222521841526, 0.149323970079422, 0.21199169754981995, 0.34901589155197144, -0.24662524461746216, 0.2450120598077774, 0.199456125497818, 0.00540136219933629, 0.28212305903434753, -0.20773844420909882, -0.1732020229101181, -0.18427744507789612, -0.032341983169317245, -0.46715572476387024, 0.17707858979701996, 0.22774620354175568, 0.5379697680473328, -0.29955610632896423, 0.07811009883880615, 0.4532446563243866, 0.21959052979946136, 0.03418376296758652, -0.4118320047855377, -0.17630872130393982, -0.22318178415298462, 0.10560541599988937, 0.3818124532699585, 0.08510535210371017, 0.5378639698028564], [-0.1603841483592987, 0.0441940538585186, 0.15244537591934204, 0.2646309435367584, -0.03803827241063118, 0.05986616387963295, -0.2672547996044159, 0.0239651370793581, -0.33297181129455566, -0.28276100754737854, 0.04561657831072807, -0.353454053401947, -0.16575933992862701, 0.07787337899208069, -0.5087970495223999, -0.1338229477405548, -0.1420104056596756, 0.08095026761293411, -0.07554610818624496, -0.12920023500919342, -0.152661994099617, 0.08235132694244385, -0.14376436173915863, -0.1035086140036583, -0.16835172474384308, 0.016506629064679146, -0.33755701780319214, -0.4119013249874115, 0.433523029088974, -0.0774429515004158, 0.030059127137064934, 0.05331883579492569, 0.5084530115127563, -0.003350831801071763, 0.09781920909881592, 0.2636869549751282, 0.0016007646918296814, 0.1751708984375, -0.25659310817718506, 0.10446879267692566, -0.1701766550540924, -0.3169667720794678, -0.07105348259210587, -0.07182276248931885, -0.31136783957481384, 0.16349512338638306, 0.2929588556289673, -0.1071067824959755, 0.28362396359443665, -0.3349243402481079, -0.11743238568305969, -0.01995355822145939, 0.23706969618797302, -0.3940185010433197, -0.1122591644525528, -0.10193265229463577, 0.20982231199741364, -0.12483301013708115, 0.26031455397605896, 0.4963196814060211, 0.0024854897055774927, -0.13919863104820251, 0.0525677353143692, -0.10016527771949768, 0.06644799560308456, 0.08552420139312744, -0.33832666277885437, -0.041988298296928406, 0.2548215687274933, 0.4756820797920227, 0.10524579882621765, -0.027170730754733086, -0.09053018689155579, -0.09758731722831726, -0.2191520631313324, -0.13352972269058228, 0.023337244987487793, -0.18404686450958252, 0.06832786649465561, -0.013338067568838596, -0.3717380166053772, -0.12126215547323227, -0.2891116738319397, 0.23018990457057953, 0.09260199218988419, 0.2624109387397766, -0.3128202259540558, -0.11174820363521576, -0.1668507158756256, 0.1379537135362625, -0.037317488342523575, 0.49320095777511597, -0.4681170582771301, 0.2808353900909424, 0.05983351171016693, -0.5544875860214233, 0.3206010162830353, 0.12356483191251755, 0.07849008589982986, 0.04298543930053711, 0.4726133644580841, 0.03950486332178116, -0.08186966925859451, 0.20500656962394714, 0.1862572282552719, 0.07059721648693085, -0.1318509727716446, -0.15673625469207764, -0.32005515694618225, -0.34952330589294434, -0.10933413356542587, 0.26564744114875793, -0.3502473831176758, 0.02492382563650608, -0.015707898885011673, 0.49149638414382935, 0.07578838616609573, 0.43505996465682983, -0.06379411369562149, 0.3748284578323364, -0.36095094680786133, 0.2599279582500458, 0.10639127343893051, 0.08542854338884354, 0.1357053965330124, 0.10472281277179718, 0.31519457697868347, -0.07247371971607208], [0.18923331797122955, -0.21859727799892426, -0.18324090540409088, -0.08222433924674988, 0.17506331205368042, -0.09764765202999115, -0.19765059649944305, 0.15526673197746277, -0.05001254379749298, -0.10393492877483368, -0.14629001915454865, 0.3104657530784607, 0.2445918768644333, 0.25897133350372314, 0.18128204345703125, 0.4163420796394348, -0.15693846344947815, -0.2774524986743927, -0.03168618679046631, -0.17615213990211487, 0.1073543131351471, -0.059098124504089355, 0.33527475595474243, -0.047980815172195435, -0.39626437425613403, -0.03167293965816498, -0.126296266913414, 0.14521917700767517, 0.07325606048107147, 0.02053060568869114, 0.058756183832883835, 0.041882310062646866, 0.050115350633859634, 0.33119717240333557, 0.42216482758522034, -0.013312861323356628, -0.5294495224952698, 0.21974873542785645, -0.17894849181175232, 0.01743369922041893, -0.4243655204772949, 0.09921583533287048, 0.2514009475708008, 0.5077190399169922, -0.08534408360719681, -0.13939735293388367, -0.08355897665023804, 0.10257431864738464, -0.17320536077022552, -0.0896843746304512, 0.03533555939793587, 0.1530785709619522, 0.29005271196365356, 0.06732288002967834, -0.34782853722572327, 0.04576415941119194, 0.25509002804756165, -0.024083375930786133, -0.06017240881919861, 0.1888430118560791, -0.1492030769586563, 0.41323980689048767, -0.14364062249660492, 0.2799544930458069, 0.26099029183387756, 0.035610612481832504, -0.43035072088241577, 0.38712334632873535, 0.24967555701732635, 0.17692817747592926, -0.04186403378844261, -0.2750519812107086, 0.38562196493148804, 0.04018722102046013, 0.12608680129051208, -0.23260316252708435, 0.12122122943401337, -0.09569692611694336, -0.12806850671768188, -0.24487489461898804, -0.03494926542043686, 0.22116607427597046, -0.0006496473797596991, -0.1641961932182312, 0.38092806935310364, -0.2898562252521515, -0.16001728177070618, -0.14668381214141846, 0.09090185165405273, 0.12036039680242538, -0.5019387602806091, -0.14615751802921295, -0.1522601842880249, 0.38408082723617554, 0.12980997562408447, 0.11826105415821075, 0.16465871036052704, 0.14260154962539673, 0.06633469462394714, 0.05209042504429817, -0.1405174732208252, -0.32466256618499756, 0.33903834223747253, 0.3445146977901459, 0.11769692599773407, 0.17256513237953186, 0.06375622004270554, 0.18894405663013458, 0.08706854283809662, 0.5510014295578003, -0.24678292870521545, -0.2574945390224457, 0.39441511034965515, -0.29732033610343933, -0.1905682384967804, -0.07067561894655228, -0.2901455760002136, -0.0065936436876654625, -0.0884934812784195, 0.2832927107810974, -0.2287110686302185, 0.1514350026845932, -0.46665048599243164, 0.1351848989725113, -0.3677228093147278, 0.14402054250240326, 0.08404985070228577, 0.12768936157226562], [-0.03980899602174759, 0.1027422845363617, 0.34213659167289734, -0.3470536470413208, 0.07466977834701538, -0.27447596192359924, -0.0020565385930240154, -0.23883138597011566, -0.3143698573112488, -0.4224885404109955, -0.07262783497571945, -0.309882253408432, 0.08644243329763412, -0.034965451806783676, 0.0528038889169693, 0.12284492701292038, 0.22071464359760284, -0.26352837681770325, 0.0010083377128466964, -0.017422456294298172, -0.3465067744255066, 0.051947858184576035, 0.5201184749603271, -0.0036520727444440126, 0.41606950759887695, -0.016193414106965065, -0.17915897071361542, 0.09828941524028778, -0.23668493330478668, 0.0799642875790596, 0.2507086992263794, -0.3864472508430481, 0.34808149933815, -0.519873321056366, -0.42425552010536194, 0.015456585213541985, 0.3052559792995453, 0.02455057017505169, -0.2857436537742615, -0.14045055210590363, -0.3552999198436737, 0.4998864233493805, -0.5900859236717224, 0.02117183431982994, -0.14183054864406586, -0.04682709276676178, 0.12446103990077972, 0.0336306206882, -0.09703822433948517, -0.09490212053060532, 0.4134475290775299, 0.3150639832019806, 0.18372195959091187, 0.09816630929708481, -0.1525023877620697, -0.16759225726127625, -0.31097331643104553, 0.2024659514427185, 0.5746468901634216, -0.3901212513446808, -0.033143993467092514, -0.284279465675354, 0.22008296847343445, -0.058705735951662064, 0.07238966226577759, -0.015666816383600235, -0.11651936173439026, 0.3437042534351349, -0.029766909778118134, 0.18204866349697113, 0.11752419173717499, 0.1418721228837967, 0.14903457462787628, 0.14762341976165771, -0.12677238881587982, -0.3289352357387543, 0.19835586845874786, 0.07467220723628998, -0.09650304913520813, -0.2388339638710022, -0.23996534943580627, 0.15728220343589783, -0.1021474301815033, -0.126253142952919, 0.003542632097378373, 0.04538719356060028, -0.1409594714641571, 0.4007754921913147, -0.17472194135189056, -0.006398397032171488, -0.3429611027240753, 0.28462377190589905, 0.1175893247127533, -0.4195944368839264, 0.37095364928245544, -0.27831804752349854, 0.24369384348392487, 0.035523414611816406, 0.19963151216506958, -0.4470379948616028, 0.34580177068710327, -0.053266942501068115, -0.19417305290699005, 0.11223337054252625, 0.26870426535606384, -0.24531683325767517, -0.09353256225585938, 0.2411135733127594, -0.00798430759459734, 0.23392996191978455, 0.5087940692901611, -0.4682304859161377, -0.4594059884548187, 0.5018393993377686, 0.46252819895744324, 0.26964256167411804, 0.2452627420425415, -0.19630539417266846, 0.45056647062301636, 0.2299702912569046, 0.277069628238678, 0.3640759289264679, -0.265167236328125, 0.22356358170509338, -0.08845853805541992, 0.2296263426542282, -0.0304096732288599, 0.00860954076051712], [-0.19360969960689545, 0.04660455137491226, -0.0740850418806076, -0.3485105335712433, -0.19079695641994476, -0.15739473700523376, -0.31747767329216003, 0.07918275892734528, 0.0021278599742799997, -0.43917950987815857, 0.20115485787391663, -0.0005549815250560641, 0.22027987241744995, 0.1823909878730774, -0.16764606535434723, -0.12325192242860794, 0.35762572288513184, -0.24709200859069824, 0.07611425220966339, 0.030284376814961433, 0.0999646931886673, 0.01479974202811718, -0.09450945258140564, -0.3012293577194214, -0.13141509890556335, -0.5042295455932617, -0.3004803955554962, 0.05734255537390709, 0.3730297088623047, 0.3104853630065918, 0.2805778980255127, 0.1352960616350174, 0.32051730155944824, -0.3537772297859192, 0.1700424700975418, 0.2012288123369217, 0.3573155403137207, -0.16150589287281036, 0.22351190447807312, -0.24157261848449707, -0.36672475934028625, -0.15911848843097687, -0.19807851314544678, 0.20236343145370483, 0.22156165540218353, 0.0960359051823616, 0.10698292404413223, 0.16840046644210815, 0.1715765744447708, -0.37427639961242676, 0.028447428718209267, -0.3791145086288452, -0.04472648352384567, -0.011375554837286472, -0.18209679424762726, -0.2126670926809311, -0.24204088747501373, 0.4860819876194, 0.4553576111793518, -0.13045063614845276, -0.019117597490549088, -0.3813450336456299, -0.11471705138683319, -0.15652111172676086, -0.18448379635810852, 0.6743491888046265, -0.18908356130123138, -0.15765587985515594, -0.042881909757852554, -0.11122262477874756, 0.13725054264068604, -0.015191876329481602, -0.09159025549888611, 0.15113882720470428, -0.19543667137622833, -0.003169512841850519, 0.0872684046626091, 0.030235202983021736, 0.4439016282558441, 0.0312657430768013, 0.12071619927883148, 0.24273723363876343, -0.5855713486671448, -0.11969703435897827, 0.11269180476665497, -0.08404076099395752, 0.1841229498386383, 0.05639804154634476, 0.008375854231417179, 0.06378304213285446, 0.2765076458454132, -0.10713567584753036, -0.3189811110496521, -0.20641422271728516, 0.041581690311431885, -0.14202818274497986, 0.17171795666217804, 0.6111445426940918, 0.16522686183452606, -0.3140474259853363, 0.35382792353630066, -0.07789056748151779, 0.33752840757369995, -0.1621837466955185, -0.1364363580942154, 0.09701158106327057, -0.21259738504886627, -0.45559319853782654, -0.16412237286567688, 0.3208259642124176, -0.14112186431884766, 0.3068042993545532, -0.09344075620174408, 0.5851401686668396, 0.10653889924287796, 0.14888404309749603, 0.016798345372080803, -0.21958895027637482, -0.021185671910643578, 0.3246919512748718, -0.4250503182411194, 0.11330567300319672, 0.33993181586265564, 0.16173595190048218, -0.02574046142399311, -0.30937254428863525, 0.26481926441192627, -0.18737228214740753], [-0.04242297261953354, 0.05948613956570625, -0.09555467218160629, -0.08702204376459122, 0.0005277243326418102, 0.0945434719324112, 0.05822364613413811, -0.04856891557574272, -0.009117702953517437, 0.03261614590883255, -0.1025855764746666, -0.09769642353057861, 0.050895873457193375, -0.029445495456457138, 0.19857226312160492, -0.01123849768191576, -0.1471073180437088, 0.047746751457452774, -0.15800650417804718, 0.012481688521802425, 0.05768587812781334, 0.056613512337207794, -0.21068046987056732, 0.018264636397361755, 0.010440034791827202, 0.11004794389009476, -0.001761360210366547, -0.0355154313147068, -0.07918109744787216, -0.08914368599653244, -0.010479133576154709, -0.0028839909937232733, -0.23216092586517334, 0.12141816318035126, -0.06321143358945847, -0.08707401901483536, -0.1606128066778183, -0.0716942697763443, 0.13563251495361328, 0.05581945180892944, 0.10812053084373474, -0.056024882942438126, 0.15283304452896118, -0.05300183966755867, 0.06703297793865204, -0.09272856265306473, -0.049316078424453735, 0.13071443140506744, 0.13453666865825653, 0.0026615376118570566, -0.06080952659249306, 0.0031742602586746216, -0.1563493311405182, -0.03555741906166077, 0.12802249193191528, -0.17615699768066406, -0.07003824412822723, 0.32658258080482483, -0.07349240779876709, -0.0637090802192688, 0.14059866964817047, -0.07068950682878494, -0.033720389008522034, 0.04462829604744911, 0.01896166056394577, -0.10431032627820969, -0.061182375997304916, 0.08360058814287186, 0.09217125922441483, 0.08927592635154724, -0.194779172539711, -0.11060995608568192, 0.019718743860721588, 0.10515020787715912, -0.1713394820690155, -0.018057512119412422, 0.007724613882601261, -0.03660571947693825, -0.052458085119724274, 0.09405390918254852, -0.16923551261425018, 0.05619217827916145, 0.039397161453962326, -0.057055361568927765, -0.06370693445205688, 0.05716483294963837, 0.13141825795173645, -0.002254734979942441, 0.05228982865810394, -0.0393991582095623, 0.18523092567920685, -0.07545292377471924, -0.008920474909245968, 0.161808043718338, 0.1804451197385788, -0.022740649059414864, 0.07648362219333649, -0.0392208956182003, -0.04272955656051636, 0.11448563635349274, -0.027610866352915764, -0.04942883923649788, 0.12205692380666733, 0.014025614596903324, -0.03676712140440941, 0.010401926934719086, 0.13155467808246613, -0.016761818900704384, -0.11768192052841187, -0.16173523664474487, 0.05424363166093826, -0.006155519280582666, 0.19473348557949066, 0.014023572206497192, -0.24072737991809845, 0.16217003762722015, 0.05634968727827072, -0.007230735383927822, 0.030376046895980835, -0.020891932770609856, -0.026530668139457703, -0.0631699338555336, 0.05288151279091835, -0.09345322847366333, 0.02920515462756157, -0.009666484780609608, -0.08065125346183777, -0.06074996665120125], [0.021124158054590225, 0.09397196769714355, 0.08960277587175369, 0.1388658732175827, 0.13978026807308197, -0.01616981439292431, -0.00807570293545723, -0.20898140966892242, -0.15442052483558655, 0.12173345685005188, -0.11823700368404388, -0.02600865066051483, 0.06240956857800484, -0.05178799852728844, -0.11039511859416962, 0.002523934468626976, -0.10883593559265137, 0.0372285395860672, -0.14848750829696655, -0.048299867659807205, 0.031000381335616112, -0.07697387784719467, 0.23408550024032593, -0.06623721867799759, 0.03900282829999924, 0.10234393924474716, -0.27739840745925903, 0.020477933809161186, -0.14573322236537933, 0.08343726396560669, 0.010093617253005505, 0.011640780605375767, 0.11692078411579132, 0.02187783643603325, 0.046214472502470016, 0.14237500727176666, 0.12435341626405716, 0.01796051859855652, -0.20633353292942047, 0.05679834261536598, 0.2368863970041275, -0.1614573448896408, 0.05339393764734268, 0.0851532444357872, 0.15968792140483856, -0.18064723908901215, 0.11086807399988174, 0.02210531197488308, -0.12072548270225525, -0.04217780753970146, 0.03502364456653595, -0.07390535622835159, -0.08018886297941208, 0.1040155440568924, 0.033644579350948334, 0.11248525232076645, 0.06354894489049911, -0.013818180188536644, -0.08165807276964188, 0.03319258242845535, 0.15000206232070923, 0.18846163153648376, -0.14112137258052826, -0.0031857320573180914, 0.09735527634620667, -0.017482340335845947, -0.1688556969165802, -0.013999410904943943, -0.10587785392999649, 0.07020234316587448, 0.013551034964621067, -0.08699966967105865, 0.037654779851436615, -0.25436174869537354, 0.020914221182465553, -0.02468167059123516, -0.06409674137830734, 0.1532931625843048, -0.18192210793495178, -0.021944643929600716, 0.1761622279882431, 0.04846080765128136, 0.005269035696983337, 0.12299985438585281, 0.015843508765101433, 0.11907071620225906, -0.1039990708231926, 0.029221968725323677, 0.03264903277158737, -0.063409224152565, -0.08452261984348297, 0.2549377977848053, -0.0018861429998651147, 0.2403673678636551, -0.0677366852760315, 0.02951076254248619, 0.1039915680885315, 0.08471079915761948, -0.04238097369670868, 0.0068551329895854, 0.2418912649154663, 0.1052025854587555, 0.061423562467098236, 0.1265866458415985, -0.09324478358030319, 0.04730221629142761, -0.020776351913809776, 0.1853259950876236, 0.034832265228033066, -0.11842092126607895, -0.033654723316431046, -0.07518304139375687, 0.02025713585317135, -0.16367673873901367, 0.07161428779363632, -0.05702819675207138, -0.10740942507982254, -0.08050379157066345, 0.1418755203485489, -0.10109889507293701, -0.08599837124347687, 0.016130801290273666, 0.16020567715168, 0.030325327068567276, -0.04578869044780731, -0.04903779178857803, -0.008977411314845085, -0.04930407181382179], [0.09706172347068787, 0.014769531786441803, -0.20598554611206055, 0.037085965275764465, 0.11611318588256836, 0.09986447542905807, 0.0895828902721405, 0.07982418686151505, -0.0789329931139946, 0.037039320915937424, 0.1854945421218872, -0.012268893420696259, -0.008684264495968819, 0.042679935693740845, -0.09845134615898132, -0.052461352199316025, -0.041501548141241074, 0.07666454464197159, 0.050246916711330414, -0.1516815423965454, 0.10527247190475464, -0.06739702075719833, 0.12113720178604126, 0.1633903533220291, 0.14687329530715942, -0.0683056190609932, 0.1998080611228943, 0.1940147578716278, 0.17238637804985046, -0.04468176141381264, -0.10360681265592575, -0.14446863532066345, -0.14478209614753723, -0.15998345613479614, 0.049859315156936646, 0.20507732033729553, -0.12476212531328201, -0.2637892961502075, 0.019161969423294067, 0.0758463591337204, 0.13356345891952515, 0.05222708359360695, -0.13349281251430511, 0.06804628670215607, 0.05729346349835396, -0.10996104776859283, 0.14904820919036865, -0.12449067085981369, -0.05694349482655525, -0.13311593234539032, 0.05212109535932541, 0.13935662806034088, 0.07976751029491425, 0.11414124071598053, -0.049415696412324905, -0.07043829560279846, -0.06128299981355667, 0.16334746778011322, -0.09827681630849838, 0.11880118399858475, -0.1494889259338379, -0.07502896338701248, 0.07114404439926147, -0.010028853081166744, 0.016143033280968666, 0.059751734137535095, -0.07583674043416977, -0.10596390068531036, 0.029380353167653084, -0.09793393313884735, -0.018638532608747482, -0.12660878896713257, 0.14971144497394562, -0.02719801850616932, -0.00993463583290577, -0.10665667057037354, 0.059499550610780716, -0.2294134497642517, -0.03018135391175747, -0.015228142961859703, -0.036659758538007736, 0.03608274459838867, -0.1704481840133667, 0.16688308119773865, 0.12009994685649872, 0.027964558452367783, -0.030146410688757896, -0.04903233423829079, 0.06245945394039154, -0.12219012528657913, 0.07503999024629593, -0.1172402873635292, -0.06497086584568024, -0.021793754771351814, -0.05848995968699455, -0.135298490524292, 0.1653916835784912, 0.08694134652614594, -0.130582794547081, -0.16089527308940887, -0.014013643376529217, -0.15875586867332458, 0.08663672208786011, 0.09255252778530121, 0.09748238325119019, -0.12686698138713837, -0.008039308711886406, 0.023441679775714874, -0.0696755200624466, 0.0020591903012245893, 0.023135092109441757, -0.14387011528015137, 0.08460573852062225, 0.07542458921670914, 0.1051509827375412, 0.08747158944606781, 0.02582242339849472, -0.09709065407514572, 0.0018063774332404137, -0.05013224110007286, -0.10936237126588821, 0.2979732155799866, -0.20177575945854187, 0.03410711511969566, -0.08166822791099548, -0.03517526015639305, 0.04037512466311455, -0.14191970229148865], [-0.8244894742965698, -1.2879557609558105, 0.13926896452903748, 1.1491732597351074, -0.6958714127540588, 0.343369722366333, -0.6086567044258118, -2.0873725414276123, -0.5936292409896851, 1.5972390174865723, -0.9502552151679993, 1.1925121545791626, 0.39311566948890686, -0.8156831860542297, -0.9921398758888245, 0.19401344656944275, -0.4069841206073761, -1.1690514087677002, 0.00320314709097147, 0.4542005956172943, -0.08351004868745804, -0.20994262397289276, 1.8522967100143433, 1.593035340309143, -2.376455307006836, 0.7572720646858215, -1.6158822774887085, 0.6583933234214783, 1.2866307497024536, -1.2017195224761963, 1.3277307748794556, -1.1712710857391357, 0.46578478813171387, 1.1071436405181885, -2.460932731628418, 1.2265973091125488, 0.9398452639579773, -0.5880128145217896, 0.55987948179245, 0.24465416371822357, 1.5750644207000732, 0.5808616280555725, 1.3664435148239136, 0.7952767014503479, 1.1690208911895752, 0.3808555603027344, 2.806035041809082, 0.845306932926178, 1.219806432723999, -0.20259220898151398, 0.6185190081596375, 0.7707161903381348, 2.85542368888855, 1.5446672439575195, 1.9602066278457642, -1.4392098188400269, -0.2541847229003906, 0.5062559247016907, -0.9962948560714722, -2.1476194858551025, 0.5846739411354065, 0.28458741307258606, -1.3101783990859985, 0.43375107645988464, -0.8660442233085632, -0.3115150034427643, -0.3200320601463318, 0.6367016434669495, -0.2696775197982788, 0.5606826543807983, 1.6268959045410156, -0.6419241428375244, -0.5573106408119202, -0.9723528027534485, -0.8576688170433044, -0.3308119475841522, 0.4789566397666931, -0.6747978329658508, -0.21202215552330017, 1.6582624912261963, 0.07235092669725418, 0.405060738325119, -0.4874148666858673, -0.8280385732650757, -1.3279720544815063, 0.832408607006073, -1.4790456295013428, 0.9749488830566406, 1.2125771045684814, -0.15492011606693268, 0.15647508203983307, 0.12089921534061432, 1.7060681581497192, 0.2304670363664627, 0.8238206505775452, -0.35651901364326477, -1.5946146249771118, 1.0071889162063599, 2.0279064178466797, -1.970165729522705, 1.051296591758728, 1.8455445766448975, -1.1577796936035156, 0.5766036510467529, 0.3248571455478668, -0.030505534261465073, -1.3115648031234741, -0.8290748596191406, -0.7292327284812927, 0.6130890846252441, -0.40982699394226074, 2.2133195400238037, 0.27784523367881775, 0.19909237325191498, 0.11152905970811844, -0.6262528300285339, 0.3673878312110901, -1.0822960138320923, -0.8994752764701843, 0.45757603645324707, -0.12218064069747925, -0.6512638926506042, 0.06834407895803452, 1.4605214595794678, 0.556571364402771, 0.4805794954299927, 1.0217688083648682, -0.33522939682006836], [0.5160789489746094, 0.36390358209609985, 0.8737507462501526, 1.3971134424209595, 1.400610327720642, 0.6924282312393188, -0.9801987409591675, -0.11799561232328415, -1.5236061811447144, 0.9575995802879333, -0.7680506110191345, -0.0929158627986908, -0.49889522790908813, 0.6275343298912048, -0.7729246616363525, 2.110201835632324, 1.0185331106185913, -0.536677360534668, -1.8597034215927124, 2.202310085296631, -0.08858972042798996, -0.6067180633544922, 